
\data\
ngram 1=1189
ngram 2=2308
ngram 3=43
ngram 4=11

\1-grams:
-2.223042	<unk>	-0.03261568
-2.223042	"	-0.03261568
-2.427161	(	-0.07450461
-2.64901	)	0.006820876
-3.126131	*	-0.03639671
-1.55793	,	-0.02745386
-2.95004	-	-0.0363967
-1.546348	.	-1.869938
-3.427161	....	-0.02033136
-2.825101	/	-0.03607139
-3.427161	01	-0.03623408
-3.427161	06	-0.03623408
-3.427161	08	-0.02033136
-3.126131	09	-0.3262957
-2.825101	10	-0.1567467
-3.126131	11	-0.3262957
-3.126131	12	-0.3144785
-3.427161	123	-0.03672177
-3.427161	13	-0.03214849
-3.427161	1356	-0.03672177
-3.427161	1357	-0.03672177
-3.427161	1358	-0.03672177
-3.427161	1359	-0.03672177
-3.427161	1360	-0.03672177
-3.427161	1361	-0.03655927
-3.427161	1366	-0.03672177
-3.427161	1382	-0.03623408
-3.427161	1385	-0.03623408
-2.825101	14	-0.1376431
-3.427161	15	-0.03066822
-3.427161	16	-0.03574583
-3.427161	1922	-0.02151082
-3.427161	1933	-0.02352533
-3.427161	1968	-0.03672177
-3.427161	1969	-0.03672177
-3.427161	1975	-0.02151082
-3.427161	1992	-0.03672177
-3.126131	2	-0.03639671
-3.427161	22	-0.02033136
-3.427161	23	-0.0363967
-3.427161	24	-0.0363967
-3.427161	25	-0.02033136
-3.427161	29	-0.02033136
-3.427161	3	-0.03672177
-2.95004	30	-0.03493087
-3.427161	300	-0.03655927
-3.427161	35	-0.03672177
-3.427161	38	-0.03214849
-3.427161	39	-0.03214849
-3.427161	4/	-0.03655927
-3.427161	43726	-0.03672177
-3.427161	458705	-0.02033136
-3.126131	5	-0.03607139
-3.427161	50	-0.03672177
-3.427161	52	-0.02033136
-3.427161	54	-0.03214849
-3.427161	54555	-0.03672177
-3.427161	55	-0.03672177
-3.427161	59	-0.03214849
-3.427161	6	-0.03655927
-3.427161	60	-0.03574583
-3.427161	64432	-0.03672177
-3.427161	77517	-0.03672177
-3.126131	80	-0.03574583
-3.427161	81	-0.03493087
-3.427161	85235	-0.03672177
-3.427161	85958	-0.03672177
-3.427161	896346	-0.02033136
-3.427161	92297	-0.03672177
-3.427161	94455	-0.03672177
-3.427161	94480	-0.03672177
-3.427161	99009	-0.03672177
-3.427161	99746	-0.03672177
-3.427161	99757	-0.03672177
-1.964763	:	-0.1045063
-2.95004	;	-0.03411437
-1.427161	</s>
-99	<s>	-0.1012918
-3.126131	?	-0.3144785
-3.427161	basic	-0.03655927
-3.427161	gps	-0.03558296
-3.427161	interpreter	-0.03590864
-3.427161	of	-0.03672177
-3.427161	pharmacutical	-0.03672177
-3.427161	qq6	-0.02352533
-3.427161	sciences	-0.02436196
-3.427161	ابادانی	-0.0177931
-3.427161	ابتدای	-0.03655927
-3.427161	ابراهیم	-0.03672177
-3.427161	اتحاد	-0.0177931
-3.126131	اتوبان	-0.3302186
-2.95004	اثار	-0.03411437
-3.427161	اثر	-0.03672177
-3.427161	اثرگذار	-0.02151082
-3.427161	اجتماعی	-0.03590864
-3.427161	اجرای	-0.03655927
-3.427161	اجرایی	-0.03655927
-3.427161	اجزای	-0.03655927
-3.126131	اجناس	-0.315658
-3.427161	احتمالا	-0.02151082
-3.427161	احداث	-0.03476769
-3.427161	احمد	-0.03672177
-3.126131	اختصاص	-0.03574583
-3.427161	اختلاف	-0.0177931
-3.427161	اختلافات	-0.0363967
-3.427161	اخذ	-0.03672177
-3.427161	اخیر	-0.03655927
-2.95004	ادامه	-0.03050344
-3.427161	ادبیات	-0.0177931
-3.427161	اذرماه	-0.02151082
-3.427161	ارایه	-0.03655927
-3.427161	ارت	-0.03672177
-2.95004	ارتباط	-0.03460445
-3.427161	ارتباط‌ها	-0.0363967
-2.95004	ارتقای	-0.03542003
-3.427161	اردبیل	-0.02469616
-3.427161	اردوان	-0.03672177
-3.427161	ارز	-0.03672177
-3.427161	ارزش	-0.0177931
-3.427161	ارزیابی	-0.03672177
-3.427161	ارش	-0.03672177
-3.427161	ارشاد	-0.03672177
-3.126131	ارقام	-0.03655927
-3.427161	ارکستر	-0.03672177
-3.427161	ارگان‌های	-0.03672177
-1.847378	از	-0.08463343
-3.427161	ازاد	-0.03476769
-3.427161	ازاده	-0.0177931
-3.427161	ازهیچ	-0.03672177
-3.427161	اساس	-0.03655927
-3.126131	اساسی	-0.03493087
-1.922011	است	-0.2785111
-3.427161	استاد	-0.03672177
-2.95004	استان	-0.03574583
-3.126131	استاندارد	-0.01745355
-3.126131	استفاده	-0.03050344
-3.427161	استناد	-0.02352533
-3.427161	اسفند	-0.0363967
-3.126131	اسلام	-0.0245291
-3.427161	اسلامی	-0.03672177
-3.427161	اسیای	-0.03672177
-3.427161	اسیب‌پذیریهای	-0.0363967
-3.427161	اش	-0.02352533
-3.427161	اشاره	-0.03509398
-3.427161	اشتغال	-0.03672177
-3.427161	اشرار	-0.03672177
-3.427161	اصفهان	-0.02151082
-3.427161	اصفهانی	-0.0177931
-3.126131	اصلی	-0.03639671
-3.427161	اظهارنظرهایی	-0.03558296
-3.427161	اعتبار	-0.03672177
-3.427161	اعتقاد	-0.03493087
-3.427161	اعزام	-0.03672177
-3.427161	اعضا	-0.03672177
-2.95004	اعضای	-0.03607139
-3.126131	اعلام	-0.03493087
-3.427161	اعمال	-0.03672177
-3.427161	اغاز	-0.03493087
-3.427161	افراد	-0.02469616
-3.126131	افرادی	-0.3249801
-2.64901	افزایش	-0.03132675
-3.427161	افزوده	-0.03460445
-3.427161	اقبال	-0.03672177
-2.95004	اقتصاد	-0.01575176
-3.427161	اقتصادی	-0.02436196
-3.427161	اقتضایات	-0.0363967
-3.126131	اقدام	-0.02436196
-3.427161	البوکورکو	-0.02151082
-3.427161	السلام	-0.03590864
-3.427161	الملل	-0.03655927
-3.427161	المللی	-0.03672177
-3.427161	الن	-0.02469616
-3.427161	الکساندر	-0.03655927
-3.427161	امادگی	-0.03672177
-3.427161	امار	-0.03623408
-2.95004	امام	-0.2077302
-3.427161	امد	-0.02436196
-3.126131	امده	-0.3258028
-2.95004	امر	-0.03132674
-2.95004	امروز	-0.01931784
-3.427161	امریکا	-0.02151082
-3.427161	امریکایی‌ها	-0.03655927
-3.427161	امنیت	-0.03672177
-3.427161	امور	-0.03607139
-2.825101	اموزش	-0.01694371
-3.427161	اموزشی	-0.0177931
-3.427161	امکان	-0.0177931
-3.126131	امکانات	-0.0342778
-3.427161	امیدواریم	-0.03149122
-3.126131	امیر	-0.03655927
-3.427161	امیرزاده	-0.02469616
-2.472919	ان	-0.1132633
-3.427161	انان	-0.0177931
-3.427161	انتخاب	-0.03607139
-3.126131	انتخابات	-0.03655927
-2.825101	انجام	-0.03116221
-3.427161	انجایی	-0.03083295
-2.95004	انجمن	-0.1704433
-3.427161	اند	-0.03083295
-3.427161	اندازه	-0.03395089
-3.427161	اندازی	-0.03672177
-3.427161	اندیشه‌ای	-0.03149122
-3.427161	اندیشید	-0.02436196
-3.427161	انصاری	-0.02469616
-3.427161	انقلاب	-0.03672177
-2.728191	انها	0.002175979
-3.427161	انگلستان	-0.03165563
-3.427161	انگلیسی	-0.03672177
-3.427161	ان‌ها	-0.03672177
-3.427161	اهانت	-0.03672177
-3.427161	اهدا	-0.03493087
-3.126131	اهداف	-0.01745355
-3.427161	اهمیت	-0.03672177
-2.64901	او	-0.01438553
-3.126131	اواخر	-0.03493087
-3.427161	اوراق	-0.03672177
-2.95004	اول	-0.03033859
-3.427161	اولین	-0.03672177
-3.427161	اکثر	-0.03655927
-3.126131	اگر	-0.03655927
-3.427161	اگرچه	-0.02352533
-3.126131	ای	-0.02436196
-3.427161	ایام	-0.03672177
-3.427161	ایتالیا	-0.0177931
-3.126131	ایجاد	-0.01762336
-3.427161	اید	-0.02469616
-3.427161	ایدرو	-0.03083295
-2.385769	ایران	-0.008183677
-3.427161	ایرانیان	-0.03672177
-3.427161	ایرج	-0.03655927
-2.95004	ایسنا	-0.1971653
-3.427161	ایشان	-0.02151082
-3.427161	ایمان	-0.03672177
-3.427161	ایمه	-0.03672177
-1.883093	این	-0.04512762
-2.95004	اینده	-0.008530546
-2.825101	اینکه	-0.1572368
-3.427161	این‌که	-0.03427779
-1.908647	با	-0.04725168
-3.427161	بازار	-0.03655927
-3.427161	بازارها	-0.02151082
-3.427161	بازارهای	-0.03655927
-3.427161	بازاموزی	-0.0177931
-3.427161	بازرسی	-0.03672177
-3.427161	بازرگانی-	-0.02033136
-3.427161	بازماندگان	-0.03542003
-3.126131	بازگشت	-0.02419477
-3.427161	بازی	-0.03395089
-3.427161	باستانی	-0.02151082
-2.95004	باشد	-0.003122509
-3.427161	باشند	-0.02436196
-3.427161	باشید	-0.03607139
-3.427161	باعث	-0.03672177
-3.427161	باقاچاق	-0.0363967
-3.427161	بالغ	-0.03395089
-3.427161	بانک	-0.03574583
-3.427161	باکو	-0.03214849
-2.64901	باید	-0.0844152
-3.427161	ببرم	-0.0177931
-3.427161	بتواند	-0.03672177
-3.126131	بحث	-0.01762336
-3.126131	بحران	-0.03655927
-3.126131	بخش	-0.3305439
-3.427161	بخشی	-0.03066822
-3.427161	بخوانید	-0.02436196
-3.427161	بدهی	-0.03672177
-3.427161	بدهی‌ها	-0.0177931
-3.427161	بدهی‌های	-0.03655927
-3.427161	بدیهی	-0.03165563
-2.427161	بر	-0.07234788
-3.427161	برابر	-0.03590864
-3.427161	براساس	-0.03542003
-3.427161	براندو	-0.03672177
-2.34798	برای	-0.03247676
-3.427161	برخوردار	-0.03672177
-3.427161	برخی	-0.03607139
-3.126131	بررسی	-0.3305439
-3.427161	برساند	-0.03623408
-3.427161	برشمرد	-0.03214849
-3.427161	برطرف	-0.03655927
-3.427161	برق	-0.0177931
-3.427161	برلین	-0.03672177
-3.427161	برمی‌خورد	-0.03672177
-2.95004	برنامه	-0.2080563
-3.427161	برنامه‌های	-0.03672177
-3.427161	برکت	-0.02469616
-2.95004	برگزار	-0.1828834
-2.825101	برگزاری	-0.1587037
-3.126131	بزرگترین	-0.03639671
-3.427161	بسته	-0.03623408
-3.427161	بسزایی	-0.03607139
-2.95004	بسیار	-0.03623408
-3.427161	بشوند	-0.02469616
-3.427161	بعثه	-0.0363967
-2.95004	بعد	-0.1796007
-3.427161	بفروشد	-0.0177931
-3.427161	بلژیک	-0.0363967
-3.126131	بلکه	-0.0300087
-3.427161	بنا	-0.03672177
-3.427161	بنابراین	-0.03493087
-3.427161	بند	-0.03427779
-1.518676	به	-0.06222935
-3.126131	بهداشت	-0.01762336
-3.427161	بهمن	-0.03672177
-3.126131	بوجود	-0.03639671
-2.825101	بود	-0.1271569
-2.95004	بودجه	-0.1954911
-3.427161	بودند	-0.03672177
-2.95004	بوده	-0.1981668
-3.427161	بوزارت	-0.03655927
-3.427161	بپردازد	-0.02436196
-3.427161	بپردازند	-0.02436196
-3.126131	بیان	-0.03493087
-3.427161	بیاورید	-0.02436196
-3.427161	بیت‌المال‌	-0.0177931
-3.126131	بیش	-0.3248154
-3.126131	بیشتر	-0.02117416
-3.427161	بیشتری	-0.03623408
-3.427161	بیل	-0.03672177
-3.126131	بیلیون	-0.3305439
-3.427161	بیمارستان	-0.03623408
-3.427161	بیمارستانها	-0.03607139
-2.472919	بیمه	-0.1269339
-2.728191	بین	-0.03607139
-3.427161	بین‌المللی	-0.0177931
-3.427161	بی‌ازار	-0.02469616
-3.427161	بی‌توجهی	-0.0363967
-2.427161	تا	-0.03460445
-3.126131	تاریخ	-0.03655927
-3.427161	تاریخچه	-0.0363967
-3.427161	تازه‌ای	-0.03214849
-3.126131	تاسیس	-0.03476769
-3.427161	تاش	-0.02469616
-3.427161	تان	-0.03607139
-3.427161	تاکنون	-0.02352533
-2.825101	تاکید	-0.1559287
-3.427161	تبریز	-0.03493087
-3.427161	تبعید	-0.02151082
-3.427161	تجزیه	-0.02469616
-3.427161	تجسمی-	-0.02033136
-2.825101	تحت	-0.1582153
-3.427161	تحقق	-0.03607139
-2.825101	تحقیقات	-0.01694371
-3.427161	تحلیل	-0.0177931
-3.427161	تحمیل	-0.03509398
-3.126131	تحویل	-0.03655927
-3.427161	تر	-0.03165563
-3.427161	ترافیک	-0.03672177
-3.427161	ترافیکی	-0.03655927
-3.427161	تردد	-0.03607139
-3.427161	تسلیم	-0.03672177
-3.427161	تصاحب	-0.03672177
-3.427161	تصویب	-0.03672177
-2.95004	تعداد	-0.02117416
-3.427161	تعریف	-0.03607139
-3.427161	تعطیلی	-0.03672177
-3.427161	تعیین	-0.03476769
-3.427161	تغذیه	-0.03655927
-3.427161	تلاشی	-0.03493087
-3.427161	تلخ	-0.03672177
-3.427161	تلخی‌ها	-0.0363967
-3.427161	تلفن	-0.03672177
-3.427161	تماما	-0.03672177
-3.427161	تمامی	-0.03655927
-2.825101	تنها	-0.03509398
-3.427161	تهدیدات	-0.03672177
-2.728191	تهران	-0.1238657
-3.427161	تهرانتوزیع	-0.03672177
-3.427161	تهیه	-0.03672177
-3.427161	توانندنامزد	-0.03655927
-2.825101	توجه	-0.1300033
-3.427161	تودیع	-0.0177931
-2.95004	توسط	-0.03623408
-3.126131	توسعه	-0.01694371
-3.427161	توصیه	-0.03672177
-3.427161	تولید	-0.03672177
-3.427161	توپ	-0.03672177
-3.427161	تکلیف	-0.03672177
-3.126131	تیر	-0.03083295
-3.427161	تیمور	-0.03672177
-3.427161	ثابت	-0.0177931
-3.427161	ج	-0.03427779
-3.427161	جابه	-0.03655927
-3.427161	جانبی	-0.03558296
-3.427161	جانی‌پور	-0.02469616
-3.427161	جایزه	-0.03672177
-3.126131	جایگاه	-0.03411438
-3.427161	جایگزین	-0.03655927
-3.126131	جایی	-0.03066823
-3.427161	جبران	-0.03542003
-3.427161	جدی	-0.03623408
-3.427161	جدید	-0.03672177
-3.427161	جز	-0.03655927
-3.427161	جزو	-0.03672177
-3.126131	جشنواره	-0.03590864
-3.427161	جلالی‌	-0.03655927
-3.427161	جلوه	-0.03672177
-3.427161	جمالی‌فرد	-0.02469616
-3.427161	جمع‌اوری	-0.0177931
-3.126131	جنگ	-0.03493087
-3.126131	جهانی	-0.03639671
-3.427161	جهت	-0.03655927
-3.427161	جوانان	-0.0177931
-3.427161	حاتمی	-0.03672177
-3.427161	حادتر	-0.03395089
-3.427161	حادثه	-0.03655927
-3.427161	حاضر	-0.03672177
-3.427161	حافظ	-0.03672177
-3.126131	حال	-0.0245291
-3.427161	حتما	-0.03116221
-3.427161	حتی	-0.03672177
-2.825101	حج	-0.1242689
-3.427161	حجاج	-0.03672177
-3.427161	حجتی	-0.03672177
-3.427161	حجت‌الاسلام	-0.03672177
-2.825101	حدود	-0.03574583
-3.427161	حروفچینی	-0.02352533
-3.427161	حساس	-0.03672177
-3.126131	حضرت	-0.3305439
-3.427161	حضور	-0.03655927
-3.427161	حفاری	-0.0177931
-3.427161	حفاظت	-0.0177931
-3.427161	حق	-0.03542003
-3.427161	حقوق-	-0.02033136
-3.126131	حل	-0.01762336
-2.95004	حمایت	-0.2024799
-3.427161	حمل	-0.0177931
-3.126131	حوزه	-0.3305439
-3.427161	حکمی	-0.02352533
-3.126131	حکومت	-0.03590864
-3.427161	حکومت‌گران	-0.03655927
-3.126131	خارج	-0.03655927
-3.427161	خارجی	-0.03214849
-3.427161	خاطر	-0.03395089
-3.126131	خاطرنشان	-0.3292412
-3.427161	خاموشی	-0.03672177
-2.95004	خانواده	-0.001539741
-3.427161	خانواده‌هایی	-0.03590864
-3.427161	خبر	-0.03214849
-2.95004	خبرنگار	-0.03558296
-3.427161	خبرگان	-0.0363967
-3.427161	خبرگزاری	-0.0363967
-3.427161	خداحافظ	-0.0363967
-2.95004	خدمت	-0.02235134
-3.427161	خدوم	-0.0177931
-3.427161	خراسان	-0.03672177
-3.427161	خرید	-0.03525704
-3.427161	خریدار	-0.03655927
-3.427161	خسروی	-0.03655927
-3.427161	خشایان	-0.03672177
-3.427161	خصوص	-0.03672177
-2.95004	خصوصی	-0.02852111
-3.427161	خلاف	-0.03542003
-3.427161	خلال	-0.03116221
-3.427161	خلیج	-0.03672177
-3.427161	خمینی	-0.03525704
-3.427161	خواربار	-0.02151082
-3.427161	خواست	-0.03672177
-3.427161	خواسته‌های	-0.0363967
-3.427161	خواه	-0.02469616
-2.582063	خواهد	-0.2403609
-3.427161	خواهیم	-0.03672177
-3.427161	خوب	-0.03672177
-2.427161	خود	-0.3255591
-3.427161	خودرو	-0.0363967
-3.126131	خودروسازی	-0.001715891
-3.427161	خودروهایی	-0.03607139
-3.427161	خودش	-0.03525704
-3.427161	خودمان	-0.03623408
-3.427161	خورد	-0.02436196
-3.427161	خیران	-0.0177931
-3.427161	خیرخواهانه	-0.0177931
-3.427161	داخل	-0.03607139
-2.95004	داخلی	0.0005796403
-3.126131	داده	-0.03149122
-3.427161	داده‌اند	-0.02469616
-3.427161	دادگاه	-0.03574583
-3.427161	دارایی	-0.03672177
-3.427161	دارایی‌ها	-0.0177931
-3.427161	دارایی‌های	-0.03655927
-2.728191	دارد	-0.3538521
-2.95004	دارویی	-0.01864083
-3.427161	داریم	-0.03083295
-3.126131	داشت	-0.03050344
-3.427161	داشتند	-0.02436196
-3.427161	داشته	-0.03165563
-3.427161	داشتیم	-0.03672177
-3.427161	دانست	-0.02436196
-3.126131	دانش	-0.03623408
-2.95004	دانشجویان	-0.03476769
-2.728191	دانشگاه	-0.016263
-3.427161	دانشگاهی	-0.02469616
-3.427161	داوطلب	-0.03672177
-3.427161	داکینو	-0.03427779
-3.427161	دبیر	-0.03655927
-3.427161	دبیران	-0.0363967
-1.458678	در	-0.1294512
-3.427161	دراید	-0.02436196
-3.427161	درباره‌ی	-0.03672177
-3.427161	درتقسیم‌	-0.03672177
-3.427161	درحالیکه	-0.03525704
-3.427161	درخواهد	-0.03672177
-3.427161	درس	-0.0177931
-2.825101	درصد	-0.139916
-3.427161	درمقام	-0.03672177
-3.427161	درک	-0.03623408
-3.126131	درگیری	-0.03116221
-3.126131	دریافت	-0.03623408
-3.427161	دریغ	-0.03655927
-3.427161	دسامبر	-0.02151082
-3.427161	دست	-0.02352533
-3.427161	دستگیری	-0.03066822
-3.427161	دشمنان	-0.03525704
-3.427161	دفن	-0.02352533
-3.427161	دقیقه	-0.0177931
-2.95004	دلار	-0.02167905
-3.427161	دلاری	-0.03655927
-3.427161	دلسوز	-0.03672177
-3.427161	دنیاست	-0.0177931
-3.427161	دهد	-0.02436196
-3.427161	دو	-0.03655927
-3.427161	دوازدهمین	-0.03655927
-2.95004	دوران	-0.03607139
-3.126131	دوره‌ی	-0.03655927
-3.427161	دوشنبه	-0.03574583
-3.126131	دولت	-0.0245291
-2.427161	دکتر	-0.03525704
-3.427161	دکتری	-0.03525704
-3.427161	دگرگون	-0.03493087
-3.427161	دی	-0.03623408
-3.427161	دیده	-0.03672177
-3.427161	دیدگاهی	-0.03672177
-3.427161	دین	-0.03655927
-3.427161	دیه‌ی	-0.0363967
-3.427161	دیوارکشی	-0.03672177
-3.126131	دیگر	-0.02436196
-3.427161	دیگری	-0.03066822
-3.427161	ذایقه‌ها	-0.03214849
-3.427161	ذخیره	-0.03607139
-3.427161	ذهن	-0.02469616
-3.427161	ذکر	-0.03509398
-3.427161	ذیل	-0.02352533
-3.427161	ذینفع	-0.03590864
-1.964763	را	-0.1092791
-3.427161	راحتی	-0.03672177
-3.427161	راستای	-0.0363967
-3.427161	راه	-0.03672177
-3.427161	رحمانی	-0.03672177
-3.427161	رسالت	-0.03672177
-3.427161	رستمی	-0.03655927
-3.427161	رسیدن	-0.02352533
-3.427161	رسیدند	-0.02436196
-3.427161	رسیده	-0.0177931
-3.427161	رشته	-0.03574583
-3.427161	رشد	-0.03672177
-3.427161	رضایت	-0.03672177
-3.427161	رضوی	-0.02469616
-3.427161	رفاه	-0.02151082
-3.427161	رفتار	-0.03672177
-3.427161	رفع	-0.03460445
-3.427161	رقابت	-0.03149122
-3.427161	رقم	-0.03623408
-2.95004	ره	-0.01999378
-3.427161	رهبران	-0.0363967
-2.95004	رهبری	-0.01609265
-3.427161	روابط	-0.03655927
-3.427161	روان	-0.03623408
-3.427161	روانشناس	-0.03672177
-2.825101	روز	-0.02302258
-3.427161	روزنامه‌های	-0.03672177
-3.427161	روزگار	-0.03672177
-3.427161	رونق	-0.0363967
-3.427161	رویکرد	-0.0363967
-3.427161	ریال	-0.03590864
-3.126131	ریزی	-0.00504921
-3.126131	رییس	-0.03558296
-3.427161	زباله‌ها	-0.03116221
-3.427161	زبان	-0.03672177
-3.427161	زحمتکش	-0.0363967
-3.427161	زده‌اند	-0.03476769
-3.427161	زرین	-0.03672177
-2.95004	زمان	-0.0240275
-3.427161	زمانی	-0.03083295
-3.427161	زمین	-0.0177931
-2.825101	زمینه	-0.03525704
-3.427161	زمینه‌های‌	-0.03672177
-3.427161	زنجیره	-0.03655927
-3.427161	زندانیان	-0.03672177
-3.126131	زنده	-0.03198427
-3.126131	زندگی	-0.01728367
-3.427161	زوج	-0.02469616
-3.427161	زوجین	-0.03672177
-3.427161	زوج‌هاو	-0.03672177
-3.427161	زیادی	-0.03672177
-2.95004	زیارت	-0.02934818
-3.427161	زیر	-0.03672177
-3.427161	زیرا	-0.03066822
-3.427161	زیگموید	-0.03655927
-3.427161	سابق	-0.03672177
-3.427161	سابقه‌ای	-0.02151082
-3.427161	ساختمان‌های	-0.03672177
-2.64901	سازمان	-0.2070774
-3.427161	سازمان‌های	-0.03672177
-3.427161	سازی	-0.03214849
-2.385769	سال	-0.03362374
-3.427161	ساله	-0.03493087
-3.427161	سال‌های	-0.0363967
-3.427161	ساوه	-0.03672177
-3.427161	سایر	-0.03672177
-3.126131	سبب	-0.0342778
-3.126131	ستاد	-0.03639671
-3.427161	سختمعاون	-0.0363967
-3.427161	سخن	-0.03655927
-3.427161	سخنرانی	-0.03395089
-3.427161	سرانه	-0.03672177
-3.427161	سربلند	-0.02469616
-3.427161	سربلندی	-0.0177931
-3.427161	سرخس	-0.02352533
-3.126131	سرزمین	-0.03493087
-3.427161	سرشار	-0.03672177
-3.126131	سرمایه	-0.03198427
-3.427161	سرمایه‌گذاری	-0.03623408
-3.427161	سرنوشت	-0.03493087
-3.427161	سطح	-0.03672177
-3.126131	سفر	-0.03655927
-3.427161	سلسله	-0.03672177
-3.427161	سمفونیک	-0.03655927
-3.126131	سنتی	-0.02285487
-3.427161	سهام	-0.03655927
-3.427161	سوال	-0.03083295
-3.427161	سود	-0.0363967
-3.427161	سوم	-0.03672177
-3.126131	سوی	-0.03623408
-3.427161	سپری	-0.02436196
-3.126131	سکه	-0.01129566
-3.427161	سیاسی	-0.0177931
-3.427161	سیدجوادی	-0.03655927
-3.126131	سیستم	-0.03639671
-2.95004	سیمان	-0.02984366
-3.427161	سینا	-0.02469616
-3.427161	سینما	-0.0177931
-3.126131	سینمای	-0.03476769
-3.427161	سینمایی	-0.02352533
-3.427161	سیوال	-0.03395089
-3.126131	سیگار	-0.03623408
-2.95004	شاخص	-0.01677363
-3.427161	شاه	-0.03116221
-3.427161	شاهد	-0.03672177
-3.427161	شایان	-0.03655927
-2.95004	شبکه	-0.02285487
-3.427161	شخص	-0.03542003
-3.427161	شخصی	-0.03672177
-2.34798	شد	-0.1532564
-2.825101	شدن	-0.03574583
-3.427161	شدند	-0.03083295
-2.313218	شده	-0.1581756
-2.825101	شرایط	-0.03444115
-3.427161	شرح	-0.03655927
-3.427161	شرقی	-0.03672177
-3.126131	شرکت	-0.03623408
-3.126131	شرکت‌های	-0.3305439
-3.427161	شریف	-0.0363967
-3.427161	شغلی	-0.03214849
-3.126131	شما	-0.02134253
-3.427161	شناسایی	-0.03672177
-3.427161	شهداد	-0.03672177
-2.95004	شهر	-0.03050344
-3.427161	شهرام	-0.03672177
-3.427161	شهرداری	-0.03116221
-3.427161	شهرها	-0.03214849
-3.427161	شهری	-0.03558296
-3.427161	شهید	-0.03655927
-2.281033	شود	-0.107967
-3.126131	شورای	-0.03607139
-3.427161	شوند	-0.02469616
-3.427161	شکست	-0.03574583
-3.427161	شکل	-0.0363967
-3.427161	شکوفایی	-0.03655927
-3.427161	صاحبان	-0.03623408
-3.427161	صادر	-0.03574583
-3.427161	صالحی	-0.02469616
-3.427161	صانعی	-0.02469616
-3.427161	صحفی	-0.03672177
-3.427161	صحنه	-0.0177931
-3.427161	صحیح	-0.03116221
-3.427161	صدیق	-0.0177931
-3.427161	صلح	-0.03623408
-2.728191	صنایع	-0.1289664
-2.95004	صنعت	-0.03623408
-3.126131	صنعتی	-0.03623408
-2.825101	صورت	-0.03623408
-3.427161	طبیعی	-0.03165563
-2.95004	طراحی	-0.02419476
-3.126131	طرح	-0.02335782
-3.427161	طرف	-0.03672177
-3.427161	طرفداران	-0.0363967
-3.427161	طور	-0.03672177
-3.126131	طول	-0.03590864
-2.582063	طی	-0.03525704
-3.427161	ظرفیت‌ها	-0.0177931
-3.427161	ظواهر	-0.0363967
-3.126131	عالی	-0.01660349
-3.427161	عامل	-0.03655927
-3.126131	عبارتی	-0.02419477
-3.427161	عباس	-0.03672177
-3.427161	عبدالحسین	-0.03672177
-3.427161	عبرت‌های	-0.0363967
-3.427161	عدم	-0.03672177
-2.95004	عراق	-0.01523992
-3.427161	عرضه‌کننده	-0.0363967
-3.427161	عزت	-0.0177931
-3.427161	عضویت	-0.03607139
-3.427161	علاقه	-0.0363967
-3.126131	علاوه	-0.3294042
-3.427161	علت	-0.03672177
-3.427161	علمی	-0.0177931
-2.582063	علوم	-0.06571399
-3.126131	علی	-0.03655927
-3.427161	علیه	-0.03655927
-3.427161	علیهما	-0.03672177
-3.427161	علی‌ابادی	-0.02469616
-3.427161	علی‌البدل	-0.03655927
-3.126131	عمر	-0.03017368
-3.427161	عمل	-0.0177931
-3.427161	عملکرد	-0.0363967
-3.427161	عموم	-0.0363967
-3.126131	عمومی	-0.03149122
-2.728191	عنوان	-0.03590864
-3.427161	عوامل	-0.03672177
-3.427161	غم‌های	-0.03525704
-3.427161	غیردولتی	-0.03083295
-3.427161	غیرقانونی-	-0.03623408
-3.427161	فارس	-0.02151082
-3.427161	فاصله	-0.03672177
-3.427161	فراصنعتی	-0.0177931
-3.427161	فراموش	-0.03672177
-3.126131	فرانسه	-0.01931784
-3.126131	فراهم	-0.03099761
-3.427161	فردوسی	-0.03672177
-3.427161	فرزندان	-0.03525704
-3.126131	فرهنگ	-0.3119403
-3.427161	فرهنگی	-0.03623408
-3.427161	فرهنگی‌ای	-0.03165563
-3.427161	فروش	-0.03672177
-3.427161	فروشگاه	-0.03574583
-3.126131	فروید	-0.02134253
-3.427161	فصل	-0.0363967
-3.126131	فعالیت	-0.03493087
-3.427161	فعالیت‌های	-0.0363967
-3.126131	فقه	-0.01745355
-3.126131	فقیه	-0.0198249
-3.427161	فناوری	-0.02151082
-3.427161	فنی	-0.03672177
-3.427161	فهم	-0.0177931
-3.427161	فوت	-0.03623408
-3.427161	فیبر	-0.03672177
-3.126131	فیزیکی	-0.01694371
-3.126131	فیلم	-0.03655927
-3.427161	فیلم‌های	-0.03655927
-3.427161	قابل	-0.03672177
-2.95004	قانون	-0.01711372
-3.427161	قاچاق	-0.0363967
-3.427161	قبلی	-0.0177931
-2.728191	قرار	-0.03362374
-3.427161	قراردادهایی	-0.03165563
-3.427161	قرارگیرد	-0.02436196
-3.427161	قران	-0.0177931
-3.427161	قرعه	-0.0177931
-3.427161	قسمتی	-0.03066822
-3.427161	قصر	-0.03672177
-3.427161	قطعات	-0.03672177
-3.427161	قطعی	-0.03655927
-3.427161	قفسه	-0.03214849
-3.427161	قویتر	-0.03672177
-3.427161	قید	-0.03672177
-2.95004	قیمت	-0.0363967
-3.427161	لابد	-0.02352533
-3.126131	لازم	-0.02151082
-3.427161	لایحه‌ای	-0.0363967
-3.427161	لزوم	-0.03655927
-3.126131	لندن	-0.03623408
-3.427161	لواسان	-0.02469616
-3.126131	ما	-0.03607139
-3.427161	مادا	-0.03672177
-3.427161	مادرها	-0.03066822
-3.427161	مارلون	-0.03672177
-3.427161	مالکیت	-0.03655927
-3.427161	مالی	-0.03672177
-3.427161	مامور	-0.03623408
-3.427161	ماموریت‌های	-0.03672177
-3.427161	ماندن	-0.03672177
-3.427161	مانند	-0.03672177
-2.95004	ماه	-0.03574583
-3.427161	ماهانه	-0.03672177
-3.126131	مایل	-0.03132674
-2.95004	مایکروسافت	-0.02268709
-3.126131	مبارزه	-0.03132674
-2.95004	مبلغ	-0.03558296
-3.427161	متاسفانه	-0.03066822
-3.427161	متبوع	-0.03672177
-3.427161	متر	-0.03672177
-3.126131	متعهد	-0.01472748
-3.427161	متناسب	-0.03149122
-3.427161	متنوعی	-0.03655927
-3.427161	متوجه	-0.03672177
-3.427161	متولد	-0.03493087
-3.427161	مثل	-0.03623408
-3.427161	مجال	-0.0363967
-3.427161	مجلات	-0.03672177
-3.126131	مجلس	-0.03050344
-3.427161	مجله	-0.03574583
-3.427161	مجموع	-0.03116221
-3.427161	مجهزتر	-0.0177931
-3.427161	مجوز	-0.03655927
-3.427161	محصول	-0.03509398
-3.427161	محمدعلی	-0.03672177
-3.427161	محمدی	-0.02469616
-3.427161	محیط	-0.0363967
-3.427161	مخاطب	-0.03672177
-3.427161	مختل	-0.03395089
-3.427161	مختلف	-0.02352533
-3.427161	مد	-0.03623408
-3.427161	مدارس	-0.03672177
-3.427161	مدت	-0.03542003
-3.126131	مدیر	-0.03655927
-3.427161	مدیران	-0.03672177
-3.427161	مدیرکل	-0.03655927
-3.427161	مدیریتی	-0.03623408
-3.427161	مذاکرات	-0.03623408
-3.427161	مرادخانی	-0.02469616
-3.126131	مراسم	-0.03655927
-3.427161	مراکز	-0.03672177
-3.427161	مربع	-0.03672177
-3.427161	مرتب	-0.03525704
-3.427161	مرتضوی	-0.02469616
-3.427161	مرحله	-0.03655927
-2.95004	مردم	-0.007315252
-3.126131	مرز	-0.03655927
-3.126131	مرزهای	-0.03542003
-3.126131	مرکز	-0.03623408
-3.126131	مرگ	-0.01575176
-3.427161	مزمن	-0.03672177
-3.427161	مسابقه	-0.03672177
-3.427161	مسافر	-0.03149122
-3.427161	مسجدجامعی	-0.03623408
-3.427161	مسلح	-0.03672177
-3.427161	مسلمان	-0.03427779
-3.427161	مسوول	-0.03623408
-3.427161	مسوولان	-0.03623408
-3.427161	مسیریاب	-0.03525704
-3.427161	مسیولان	-0.03623408
-3.427161	مشاغل	-0.03672177
-3.427161	مشاور	-0.03672177
-3.126131	مشاوره	-0.001715891
-3.126131	مشخص	-0.0342778
-3.427161	مشروطیت	-0.02469616
-3.427161	مشهد	-0.03493087
-3.427161	مشهور	-0.03165563
-2.728191	مشکل	-0.03558296
-2.95004	مشکلات	-0.03509398
-3.427161	مصاحبه	-0.03672177
-2.95004	مصرف	-0.2077302
-3.427161	مصطفی	-0.03672177
-3.427161	مطالب	-0.03672177
-3.126131	مطبوعات	-0.02335782
-3.427161	مطرح	-0.0363967
-3.427161	معابر	-0.03672177
-3.427161	معارفه	-0.03672177
-3.427161	معامله	-0.03672177
-3.427161	معضل	-0.03672177
-3.126131	معظم	-0.3305439
-3.427161	معلی	-0.02352533
-3.126131	معینی	-0.01864084
-3.427161	مفسر	-0.03525704
-3.126131	مقابل	-0.03590864
-3.427161	مقابله	-0.03149122
-3.427161	مقالات	-0.03655927
-2.95004	مقام	-0.2087076
-3.427161	مقامات‌	-0.0177931
-3.427161	مقایسه	-0.03149122
-3.427161	مقطع	-0.0363967
-2.728191	ملی	-0.03346007
-3.427161	ممکن	-0.03165563
-3.427161	منابع	-0.03672177
-3.427161	منافع	-0.03672177
-3.427161	منتشر	-0.03574583
-3.427161	منتقدسینما	-0.03558296
-2.95004	منطقه	-0.0240275
-2.95004	منظور	-0.03590864
-3.427161	منعقد	-0.03672177
-3.427161	مهاجرت	-0.03509398
-3.427161	مهدی	-0.03672177
-3.427161	مهذب	-0.03672177
-3.427161	مهم	-0.03542003
-3.427161	موتورسیکلت-	-0.03672177
-3.427161	موتوری	-0.03672177
-3.427161	موثری	-0.02151082
-3.126131	موجب	-0.03639671
-2.825101	مورد	-0.03280477
-3.427161	موسسات	-0.03672177
-3.427161	موسیقی	-0.03607139
-3.427161	موفق	-0.02352533
-3.427161	موقت	-0.0177931
-3.427161	موقع	-0.03672177
-3.427161	موکد	-0.03672177
-3.427161	مکان	-0.03214849
-3.427161	مکشوفه	-0.03672177
-2.171889	می	-0.3750476
-3.427161	میانه	-0.03066822
-3.427161	میر	-0.02151082
-3.427161	میزان	-0.03655927
-3.427161	میلا	-0.03672177
-3.427161	میلاد	-0.03672177
-2.95004	میلیون	-0.03590864
-3.427161	می‌اورد	-0.02436196
-3.126131	می‌تواند	-0.03574584
-3.427161	می‌توانید	-0.03672177
-3.427161	می‌دهد	-0.03607139
-3.427161	می‌رسد	-0.03083295
-3.427161	می‌سازند	-0.02436196
-3.427161	می‌شود	-0.03672177
-3.427161	می‌پردازد	-0.02151082
-3.427161	می‌کند	-0.02352533
-3.427161	می‌کنند	-0.02436196
-3.427161	ناصری	-0.03149122
-3.427161	ناظری	-0.03672177
-3.126131	نام	-0.03623408
-3.427161	نامjournal	-0.03672177
-3.427161	نباید	-0.02352533
-3.427161	نبود	-0.02436196
-3.427161	نبوده	-0.02469616
-3.427161	نحوه	-0.0177931
-3.427161	نخبگان	-0.02352533
-3.126131	نخواهد	-0.03493087
-3.427161	نداشتند	-0.02436196
-3.427161	نداشته	-0.0363967
-3.427161	نرخ	-0.03672177
-3.126131	نزدیک	-0.02335782
-3.427161	نزدیکان	-0.0177931
-3.427161	نسبت	-0.02352533
-3.427161	نشان	-0.03672177
-3.126131	نشریات	-0.03198427
-3.427161	نشوند	-0.03083295
-3.427161	نظامی	-0.03672177
-2.825101	نظر	-0.03493087
-3.427161	نظیر	-0.03574583
-3.427161	نفت	-0.03214849
-3.126131	نفر	-0.03017368
-3.427161	نقاطی	-0.03655927
-3.126131	نقش	-0.01745355
-3.427161	نماند	-0.02436196
-3.126131	نمایش	-0.03655927
-3.126131	نمایشگاه	-0.02319023
-2.95004	نمایندگی	-0.1934735
-3.427161	نمی‌توان	-0.03672177
-3.427161	نمی‌توانستند	-0.02352533
-3.427161	نمی‌خواهم	-0.03655927
-3.427161	نمی‌شود	-0.02436196
-3.427161	نمی‌کند	-0.0363967
-3.427161	نه	-0.03623408
-3.126131	نهادهای	-0.03639671
-3.427161	نهاد‌ها	-0.0177931
-2.95004	نهضت	-0.03574583
-3.427161	نهضتی	-0.03214849
-3.427161	نهم	-0.03672177
-3.427161	نوامبر	-0.03525704
-3.427161	نوجوان	-0.03655927
-3.427161	نوجوانان	-0.03672177
-3.427161	نوری	-0.03574583
-3.427161	نوسازی	-0.03607139
-3.427161	نوشت	-0.03214849
-3.126131	نوع	-0.03033859
-3.427161	نوه	-0.03672177
-3.427161	نویسنده	-0.0177931
-3.427161	نژاد	-0.02469616
-3.427161	نکته	-0.03672177
-3.427161	نیا	-0.02469616
-3.126131	نیاز	-0.01762336
-3.427161	نیازمندان	-0.02151082
-3.427161	نیروگاه	-0.03655927
-2.524071	نیز	-0.006270863
-3.427161	نیستند	-0.02436196
-3.427161	نیمه59	-0.03525704
-3.427161	نیمه60	-0.03590864
-3.427161	نیومکزیکو	-0.02469616
-3.427161	نیکی	-0.03655927
-3.427161	ها	-0.03214849
-3.427161	هاسال	-0.03672177
-3.427161	هاشمی	-0.03558296
-3.427161	هاکل	-0.03672177
-2.582063	های	-0.02918289
-3.427161	هجمه	-0.03672177
-3.427161	هدایایی	-0.03066822
-3.126131	هدف	-0.03623408
-3.427161	هدی	-0.03525704
-2.64901	هر	-0.02984367
-2.582063	هزار	-0.09328683
-3.427161	هزینه	-0.03672177
-3.126131	هستند	-0.01728367
-3.427161	هستید	-0.0177931
-3.126131	هستیم	-0.02402751
-3.126131	هشت	-0.03525704
-3.126131	هفت	-0.03639671
-3.427161	هفتم	-0.03655927
-3.427161	هفته	-0.0363967
-3.427161	هلاکت	-0.03672177
-2.825101	هم	-0.03607139
-2.95004	هماهنگ	-0.01881018
-3.427161	هماهنگی	-0.0363967
-3.427161	همتی	-0.03672177
-2.728191	همراه	-0.01694371
-3.427161	همراهان	-0.03655927
-2.95004	همه	-0.03607139
-2.825101	همچنین	-0.02066867
-3.427161	همچون	-0.0363967
-3.427161	هم‌چنین	-0.03672177
-3.427161	هنر	-0.03672177
-3.427161	هنر-هنرهای	-0.03672177
-3.427161	هنرمندان	-0.03672177
-3.126131	هنری	-0.02134253
-3.427161	هیات	-0.03672177
-3.427161	هیچ	-0.03672177
-1.366464	و	0.01201235
-3.427161	واترپلو	-0.03214849
-3.427161	والدین	-0.03116221
-3.427161	واگذار	-0.03476769
-3.427161	واگذاری	-0.0363967
-3.427161	وجاده	-0.03655927
-2.825101	وجود	-0.03558296
-3.427161	وحی	-0.03655927
-3.427161	وداع	-0.03149122
-3.126131	ورزش	-0.03655927
-3.427161	ورزشی	-0.02033136
-3.427161	ورزید	-0.0177931
-2.825101	وزارت	-0.1577263
-3.427161	وزیر	-0.03574583
-3.427161	وسیله	-0.03655927
-3.427161	وضعیت	-0.03672177
-3.427161	وفادار	-0.0177931
-3.427161	وقتی	-0.02151082
-2.825101	ولی	-0.1436381
-3.427161	وماموریت‌های	-0.03672177
-3.427161	ومهجوریت	-0.03655927
-3.427161	وپول	-0.03672177
-3.427161	وگو	-0.03672177
-3.427161	وگوی	-0.03672177
-2.34798	وی	-0.07110681
-3.126131	پاریس	-0.03411438
-3.427161	پاسخ	-0.02352533
-3.126131	پایان	-0.03476769
-3.427161	پایانه	-0.03574583
-3.427161	پایانی	-0.03623408
-3.126131	پایین	-0.03655927
-3.427161	پتانسیل‌های	-0.03655927
-3.427161	پخش	-0.03574583
-2.95004	پدر	-0.01489836
-3.427161	پراید370	-0.0363967
-3.126131	پرورش	-0.03460446
-3.126131	پروژه	-0.03607139
-3.427161	پزشکی	-0.03607139
-3.126131	پس	-0.03050344
-3.427161	پستها	-0.0177931
-3.427161	پنام	-0.03672177
-3.427161	پنهان	-0.03672177
-3.427161	پور	-0.03083295
-3.126131	پوشش	-0.03509399
-3.427161	پیروز	-0.03672177
-3.427161	پیروزی	-0.03672177
-3.427161	پیروی	-0.02151082
-3.126131	پیشرفت	-0.3307065
-3.427161	پیشگیری	-0.03066822
-3.126131	پیچ	-0.02134253
-3.427161	پیک	-0.03672177
-3.427161	چالش‌هایی	-0.03214849
-3.126131	چاپ	-0.03460446
-2.95004	چرا	-0.02335781
-3.427161	چقدر	-0.03165563
-3.427161	چند	-0.03672177
-3.427161	چندانی	-0.03214849
-2.825101	چنین	-0.03623408
-2.728191	چه	-0.1133115
-3.427161	چهارم	-0.03525704
-3.126131	چه‌	-0.02134253
-3.427161	چگونه	-0.03655927
-3.427161	چی	-0.03672177
-3.427161	چیره	-0.03672177
-3.427161	چیز	-0.03672177
-3.427161	کادر	-0.03672177
-3.427161	کار	-0.03623408
-3.427161	کاربردی	-0.02469616
-3.427161	کارت	-0.03672177
-3.427161	کارخانه‌های	-0.0363967
-3.427161	کارهای	-0.03672177
-3.427161	کارهایی	-0.03672177
-3.427161	کاروان	-0.03672177
-3.427161	کارکنان	-0.03672177
-3.427161	کارگاه	-0.03574583
-3.427161	کاریکاتور	-0.02151082
-2.95004	کالا	-0.003999341
-3.427161	کالاهای	-0.03655927
-3.427161	کالای	-0.03525704
-3.126131	کاملا	-0.3305439
-3.427161	کامل‌تر	-0.03165563
-3.427161	کانون	-0.03214849
-3.427161	کتابخانه	-0.03672177
-3.427161	کرامت	-0.03509398
-3.427161	کربلای	-0.03672177
-3.427161	کرج	-0.02469616
-2.385769	کرد	-0.1461059
-3.427161	کردند	-0.0177931
-2.728191	کرده	-0.1142806
-3.427161	کرده‌اند	-0.0177931
-3.427161	کرده‌ایم	-0.03083295
-3.427161	کرمان	-0.02352533
-3.427161	کرمانی	-0.02151082
-3.427161	کروبی	-0.0177931
-3.126131	کریمی	-0.03607139
-3.427161	کس	-0.03655927
-3.126131	کسب	-0.03590864
-3.427161	کشاورزی	-0.03509398
-2.582063	کشور	-0.07123329
-3.427161	کشوررومانی	-0.0363967
-3.427161	کشورشان	-0.03672177
-2.95004	کل	-0.03607139
-3.126131	کم	-0.03149122
-3.427161	کمیسیون	-0.03607139
-3.427161	کنترل	-0.0177931
-2.728191	کند	-0.09458628
-3.427161	کنم	-0.02436196
-2.95004	کنند	-0.005398601
-3.427161	کنگره	-0.03574583
-3.427161	کنید	-0.0177931
-1.85896	که	-0.08084236
-3.427161	کوب	-0.03672177
-3.126131	کوتاه	-0.03378734
-2.95004	کودکان	-0.01694371
-3.427161	کوشش	-0.03395089
-3.427161	کی	-0.03672177
-3.427161	کیا	-0.03558296
-3.427161	کیفیت	-0.03672177
-2.95004	کیلومتر	-0.02033136
-3.427161	گاز	-0.03655927
-3.427161	گانه	-0.02151082
-3.427161	گذار	-0.03623408
-3.427161	گذاری	-0.03672177
-3.427161	گذاشته	-0.03493087
-2.95004	گذشته	-0.002595562
-3.427161	گر	-0.02151082
-3.427161	گرافیک	-0.02469616
-3.126131	گرایش	-0.3176725
-3.427161	گرایید	-0.02436196
-3.126131	گردد	-0.3185092
-3.427161	گردشگری	-0.03395089
-3.427161	گرفتن	-0.03655927
-3.427161	گرفته	-0.03165563
-3.126131	گروه	-0.03639671
-3.427161	گروهی	-0.03083295
-3.427161	گروه‌ها	-0.0177931
-3.427161	گریت	-0.03672177
-2.728191	گزارش	-0.1187044
-3.427161	گسترده	-0.02469616
-3.427161	گسترش	-0.0177931
-2.313218	گفت	-0.8447333
-3.427161	گفتنی	-0.03165563
-3.427161	گفته	-0.03672177
-3.427161	گفته‌ی	-0.03493087
-3.126131	گفت‌وگو	-0.03066823
-3.427161	گوری	-0.03427779
-3.427161	گونه	-0.03672177
-3.427161	گیتس	-0.03672177
-3.427161	گیرند	-0.03427779
-3.427161	گیری	-0.0177931
-2.825101	یا	-0.03476769
-3.427161	یابد	-0.03590864
-3.427161	یاد	-0.03476769
-3.427161	یادداشت‌هایی	-0.03672177
-3.427161	یادمان	-0.03655927
-3.427161	یارانه	-0.02151082
-3.427161	یافت	-0.02436196
-3.427161	یافته	-0.03165563
-3.427161	یحیی‌زاده	-0.02469616
-3.427161	یعقوبی	-0.02436196
-3.126131	یونسکو	-0.02134253
-2.728191	یک	-0.130273
-3.427161	یکجا	-0.02352533
-3.427161	یکدیگر	-0.03672177
-3.427161	‌12	-0.03672177
-3.427161	‌1357	-0.03607139
-3.126131	‌دکتر	-0.03655927

\2-grams:
-2.293375	" اتحاد
-2.293375	" از
-2.293375	" ان
-2.293375	" اگر
-2.293375	" تاکید
-2.293375	" ج
-2.293375	" دانشجویان
-2.293375	" داکینو
-2.293375	" در
-2.293375	" سیدجوادی
-2.293375	" قانون
-1.176058	" وی
-2.293375	" چه
-2.293375	" کودکان
-2.293375	" گفت
-2.089255	( gps
-2.089255	( interpreter
-2.089255	( ایدرو
-2.089255	( بعثه
-0.981179	( ره
-2.089255	( علیهما
-2.089255	( میلیون
-2.089255	( نیمه59
-1.867406	) .
-1.867406	) basic
-1.867406	) به
-1.867406	) بوجود
-1.867406	) در
-1.867406	) کل
-1.390285	* بازگشت
-1.390285	* وداع
-2.958487	, اتوبان
-2.958487	, اجزای
-2.958487	, اردوان
-2.958487	, ارش
-2.958487	, ارقام
-2.958487	, از
-2.958487	, اسیب‌پذیریهای
-2.958487	, اعضای
-2.958487	, اعلام
-2.958487	, امروز
-2.958487	, امریکایی‌ها
-2.958487	, امیر
-2.958487	, ایمان
-1.84117	, این
-2.958487	, با
-2.958487	, برای
-1.84117	, بلکه
-2.958487	, بنابراین
-1.426967	, به
-2.958487	, بی‌توجهی
-2.958487	, تا
-2.958487	, تحت
-2.958487	, تحقیقات
-2.958487	, تحلیل
-2.958487	, تماما
-2.958487	, جابه
-2.958487	, حتما
-2.958487	, خشایان
-2.958487	, خصوصی
-2.958487	, خواهیم
-1.36796	, دکتر
-2.958487	, سازمان
-1.84117	, سبب
-2.958487	, شاخص
-2.958487	, طراحی
-2.958487	, طی
-2.958487	, علی
-2.958487	, فاصله
-2.958487	, قران
-2.958487	, مایکروسافت
-2.958487	, مبلغ
-2.958487	, متعهد
-2.958487	, مدت
-2.958487	, مسوول
-2.958487	, مشاوره
-2.958487	, مصرف
-2.958487	, مصطفی
-2.958487	, مطبوعات
-2.958487	, معضل
-2.958487	, مهدی
-2.958487	, مهذب
-2.958487	, می
-2.958487	, میلاد
-2.958487	, نهضت
-2.958487	, نیاز
-2.958487	, همه
-2.958487	, پرورش
-2.958487	, چنین
-2.958487	, گرافیک
-2.958487	, گروه‌ها
-2.958487	, گفت
-2.958487	, ‌دکتر
-1.566377	- ساوه
-1.566377	- هزینه
-1.566377	- کرج
-0.005677133	. </s>
-1.089255	.... </s>
-1.691315	/ 01
-1.691315	/ 06
-1.691315	/ 12
-1.691315	/ 25
-1.089255	01 /
-1.089255	06 /
-1.089255	08 </s>
-0.2729678	09 :
-0.5739979	10 درصد
-1.691315	10 سال
-1.691315	10 سفر
-0.2729678	11 :
-0.2729678	12 </s>
-1.089255	123 دقیقه
-1.089255	13 :
-1.089255	1356 1357
-1.089255	1357 1358
-1.089255	1358 1359
-1.089255	1359 1360
-1.089255	1360 1361
-1.089255	1361 اگر
-1.089255	1366 تاکنون
-1.089255	1382 /
-1.089255	1385 /
-1.691315	14 :
-0.583239	14 هزار
-1.089255	15 از
-1.089255	16 هزار
-1.089255	1922 در
-1.089255	1933 به
-1.089255	1968 موفق
-1.089255	1969 ایتالیا
-1.089255	1975 در
-1.089255	1992 میلا
-1.390285	2 بیلیون
-1.390285	2 جدی
-1.089255	22 </s>
-1.089255	23 میلیون
-1.089255	24 ماه
-1.089255	25 </s>
-1.089255	29 </s>
-1.089255	3 دسامبر
-1.566377	30 درصد
-1.566377	30 نوامبر
-1.566377	30 هزار
-1.089255	300 سکه
-1.089255	35 بیمارستان
-1.089255	38 :
-1.089255	39 :
-1.089255	4/ 2
-1.089255	43726 54555
-1.089255	458705 </s>
-1.390285	5 -
-1.390285	5 بیلیون
-1.089255	50 برابر
-1.089255	52 </s>
-1.089255	54 :
-1.089255	54555 64432
-1.089255	55 ساله
-1.089255	59 :
-1.089255	6 نفر
-1.089255	60 هزار
-1.089255	64432 77517
-1.089255	77517 85235
-1.390285	80 درصد
-1.390285	80 کل
-1.089255	81 برای
-1.089255	85235 99757
-1.089255	85958 94455
-1.089255	896346 </s>
-1.089255	92297 94480
-1.089255	94455 99746
-1.089255	94480 99009
-1.089255	99009 1356
-1.089255	99746 92297
-1.089255	99757 85958
-1.443577	: "
-2.551653	: 08
-2.551653	: 12
-2.551653	: 14
-2.551653	: 22
-2.551653	: 29
-2.551653	: 35
-2.551653	: 38
-2.551653	: 39
-2.551653	: 52
-2.551653	: 54
-2.551653	: 59
-0.9611266	: </s>
-2.551653	: افزایش
-2.551653	: امیر
-1.020134	: در
-2.551653	: ممکن
-2.551653	: نهادهای
-1.566377	; 14
-1.566377	; رفاه
-1.566377	; وی
-1.981179	<s> "	-0.09358869
-3.089255	<s> *
-1.981179	<s> .	1.26573
-1.971938	<s> 09	0.1294002
-1.971938	<s> 11	0.1294002
-3.089255	<s> 13
-3.089255	<s> 1382
-3.089255	<s> 1385
-3.089255	<s> 15
-3.089255	<s> 2
-3.089255	<s> 458705
-3.089255	<s> 5
-3.089255	<s> 896346
-3.089255	<s> اتوبان
-3.089255	<s> اختلافات
-3.089255	<s> ارزش
-1.971938	<s> از
-3.089255	<s> استاد
-3.089255	<s> افراد
-3.089255	<s> اقتصاد
-1.971938	<s> او
-3.089255	<s> اواخر
-3.089255	<s> ایران
-1.971938	<s> این
-1.557736	<s> با	-0.07525224
-3.089255	<s> بدیهی
-3.089255	<s> بر
-1.045758	<s> به	-0.04895198
-3.089255	<s> بیمه
-3.089255	<s> حجتی
-3.089255	<s> خداحافظ
-1.09691	<s> در
-3.089255	<s> درحالیکه
-3.089255	<s> دلسوز
-3.089255	<s> دوازدهمین
-3.089255	<s> رییس
-3.089255	<s> شما
-3.089255	<s> علی
-3.089255	<s> فردوسی
-3.089255	<s> فرهنگ
-3.089255	<s> فروید
-3.089255	<s> فقه
-3.089255	<s> قرار
-3.089255	<s> قیمت
-3.089255	<s> مجوز
-3.089255	<s> مدیرکل
-3.089255	<s> نحوه
-3.089255	<s> نیکی
-1.971938	<s> هدف
-3.089255	<s> هر
-1.981179	<s> همچنین
-3.089255	<s> هم‌چنین
-3.089255	<s> هنر
-3.089255	<s> هیچ
-1.971938	<s> و
-3.089255	<s> واترپلو
-3.089255	<s> ورزشی
-3.089255	<s> وزیر
-3.089255	<s> وضعیت
-1.30103	<s> وی	-0.03030689
-3.089255	<s> پس
-3.089255	<s> چه‌
-3.089255	<s> گفت
-3.089255	<s> گفتنی
-3.089255	<s> ‌دکتر
-0.2729678	? </s>
-1.089255	basic تاسیس
-1.089255	gps نیز
-1.089255	interpreter )
-1.089255	of pharmacutical
-1.089255	pharmacutical sciences
-1.089255	qq6 به
-1.089255	sciences .
-1.089255	ابادانی و
-1.089255	ابتدای دوره‌ی
-1.089255	ابراهیم حاتمی
-1.089255	اتحاد و
-0.2729678	اتوبان تهران	-0.09741287
-1.566377	اثار او
-1.566377	اثار دکتر
-1.566377	اثار مکشوفه
-1.089255	اثر ابراهیم
-1.089255	اثرگذار در
-1.089255	اجتماعی باید
-1.089255	اجرای پروژه
-1.089255	اجرایی مشخص
-1.089255	اجزای هفت
-0.2729678	اجناس در
-1.089255	احتمالا در
-1.089255	احداث شده
-1.089255	احمد مسجدجامعی
-1.390285	اختصاص داده
-1.390285	اختصاص دارد
-1.089255	اختلاف و
-1.089255	اختلافات داخلی
-1.089255	اخذ دکتری
-1.089255	اخیر بزرگترین
-1.566377	ادامه با
-1.566377	ادامه شایان
-1.566377	ادامه مشکل
-1.089255	ادبیات و
-1.089255	اذرماه در
-1.089255	ارایه طرح
-1.089255	ارت اخیر
-1.566377	ارتباط ادبیات
-1.566377	ارتباط خود
-1.566377	ارتباط مصرف
-1.089255	ارتباط‌ها مشکلات
-1.566377	ارتقای سطح
-1.566377	ارتقای علوم
-1.566377	ارتقای کیفیت
-1.089255	اردبیل ,
-1.089255	اردوان جمالی‌فرد
-1.089255	ارز واگذار
-1.089255	ارزش و
-1.089255	ارزیابی قرارگیرد
-1.089255	ارش مرتضوی
-1.089255	ارشاد اسلامی
-1.390285	ارقام دیگری
-1.390285	ارقام یاد
-1.089255	ارکستر سمفونیک
-1.089255	ارگان‌های مختلف
-2.669039	از 16
-2.669039	از 30
-2.669039	از 5
-2.669039	از استان
-2.669039	از استاندارد
-2.669039	از اعلام
-2.669039	از امکانات
-2.669039	از انجایی
-2.669039	از انها
-1.137519	از این
-2.669039	از بخش
-2.669039	از بیمه
-2.669039	از جنگ
-2.669039	از حادثه
-2.669039	از خود
-2.669039	از دانشگاه
-2.669039	از دوران
-2.669039	از رشته
-2.669039	از سال
-1.551721	از سوی
-2.669039	از شبکه
-2.669039	از شرایط
-2.669039	از صنایع
-2.669039	از طرف
-2.669039	از مرز
-1.551721	از مرگ
-2.669039	از نزدیکان
-1.551721	از نظر
-2.669039	از نیازمندان
-2.669039	از همه
-2.669039	از هنرمندان
-2.669039	از چهارم
-1.089255	ازاد شده
-1.089255	ازاده و
-1.089255	ازهیچ گونه
-1.089255	اساس فقه
-1.390285	اساسی خواهد
-1.390285	اساسی دارد
-1.486329	است ,
-0.4259687	است .	0.7725474
-2.594405	است :
-2.594405	است ?
-2.594405	است ازهیچ
-2.594405	است دانشگاه
-2.594405	است در
-2.594405	است درک
-2.594405	است قانون
-2.594405	است هر
-1.477088	است و
-1.003879	است که	0.01433263
-1.089255	استاد شهرام
-1.566377	استان اردبیل
-1.566377	استان تهران
-1.566377	استان خراسان
-1.390285	استاندارد لازم
-1.390285	استاندارد و
-1.390285	استفاده از
-1.390285	استفاده عموم
-1.089255	استناد به
-1.089255	اسفند ماه
-1.390285	اسلام ,
-1.390285	اسلام اشاره
-1.089255	اسلامی احمد
-1.089255	اسیای میانه
-1.089255	اسیب‌پذیریهای داخلی
-1.089255	اش به
-1.089255	اشاره کرد
-1.089255	اشتغال داشته
-1.089255	اشرار مسلح
-1.089255	اصفهان در
-1.089255	اصفهانی و
-1.390285	اصلی قراردادهایی
-1.390285	اصلی نشریات
-1.089255	اظهارنظرهایی نیز
-1.089255	اعتبار تبریز
-1.089255	اعتقاد وی
-1.089255	اعزام بشوند
-1.089255	اعضا قطعات
-1.566377	اعضای خانواده
-1.566377	اعضای علی‌البدل
-1.566377	اعضای هیات
-1.390285	اعلام امادگی
-1.390285	اعلام کرد
-1.089255	اعمال خیرخواهانه
-1.089255	اغاز شد
-1.089255	افراد ,
-0.2729678	افرادی که
-1.867406	افزایش بودجه
-1.867406	افزایش خواهد
-1.867406	افزایش داده
-1.867406	افزایش قیمت
-1.867406	افزایش می
-1.867406	افزایش یافته
-1.089255	افزوده شود
-1.089255	اقبال می‌کنند
-1.566377	اقتصاد ایران
-1.566377	اقتصاد و
-1.566377	اقتصاد کشاورزی
-1.089255	اقتصادی .
-1.089255	اقتضایات دوران
-1.390285	اقدام ,
-1.390285	اقدام کاملا
-1.089255	البوکورکو در
-1.089255	السلام )
-1.089255	الملل مرکز
-1.089255	المللی فیلم‌های
-1.089255	الن ,
-1.089255	الکساندر لندن
-1.089255	امادگی اعضا
-1.089255	امار وزارت
-0.4490591	امام (	-0.1537312
-1.566377	امام خمینی
-1.089255	امد .
-0.2729678	امده است
-1.566377	امر حج
-1.566377	امر را
-1.566377	امر راه
-1.566377	امروز برای
-1.566377	امروز در
-1.566377	امروز نبود
-1.089255	امریکا در
-1.089255	امریکایی‌ها بیش
-1.089255	امنیت شغلی
-1.089255	امور بین
-1.691315	اموزش دانشگاهی
-1.691315	اموزش صلح
-1.691315	اموزش و
-1.691315	اموزش کودکان
-1.089255	اموزشی و
-1.089255	امکان و
-1.390285	امکانات برای
-1.390285	امکانات مورد
-1.089255	امیدواریم با
-1.390285	امیر امیرزاده
-1.390285	امیر عباس
-1.089255	امیرزاده ,
-2.043498	ان ,
-2.043498	ان 123
-2.043498	ان بیمه
-2.043498	ان تاسیس
-0.9261804	ان در
-2.043498	ان روزگار
-0.9261804	ان زمان
-1.089255	انان و
-1.089255	انتخاب کرده
-1.390285	انتخابات بودند
-1.390285	انتخابات نداشتند
-1.691315	انجام خواهد
-1.691315	انجام داده‌اند
-1.691315	انجام شده
-1.691315	انجام شود
-1.089255	انجایی که
-0.4583003	انجمن در
-1.089255	اند که
-1.089255	اندازه می
-1.089255	اندازی تلفن
-1.089255	اندیشه‌ای با
-1.089255	اندیشید .
-1.089255	انصاری ,
-1.089255	انقلاب خودمان
-1.788225	انها ,
-1.788225	انها با
-1.788225	انها در
-1.788225	انها دست
-1.788225	انها را
-1.089255	انگلستان است
-1.089255	انگلیسی منتشر
-1.089255	ان‌ها چیره
-1.089255	اهانت پیروز
-1.089255	اهدا شد
-1.390285	اهداف عالی
-1.390285	اهداف و
-1.089255	اهمیت بسزایی
-1.867406	او اختصاص
-1.867406	او اقبال
-1.867406	او بپردازد
-1.867406	او تحمیل
-1.867406	او در
-1.867406	او که
-1.390285	اواخر سال
-1.390285	اواخر هفته
-1.089255	اوراق سهام
-1.566377	اول تا
-1.566377	اول را
-1.566377	اول پخش
-1.089255	اولین علت
-1.089255	اکثر اجناس
-1.390285	اگر جز
-1.390285	اگر جزو
-1.089255	اگرچه به
-1.390285	ای ,
-1.390285	ای پایین
-1.089255	ایام هدایایی
-1.089255	ایتالیا و
-1.390285	ایجاد رفتار
-1.390285	ایجاد و
-1.089255	اید ,
-1.089255	ایدرو که
-2.130648	ایران (
-2.130648	ایران زمین
-2.130648	ایران قرار
-2.130648	ایران مطرح
-2.130648	ایران مورد
-2.130648	ایران می‌پردازد
-2.130648	ایران نباید
-2.130648	ایران نیز
-2.130648	ایران و
-2.130648	ایران وی
-2.130648	ایران گفت
-1.089255	ایرانیان ازاده
-1.089255	ایرج کریمی
-0.4490591	ایسنا ,
-1.566377	ایسنا درس
-1.089255	ایشان در
-1.089255	ایمان مرادخانی
-1.089255	ایمه هدی
-2.633323	این ارتباط‌ها
-2.633323	این اساس
-2.633323	این است
-1.516006	این انجمن	-0.01581445
-2.633323	این ایام
-2.633323	این بازارها
-2.633323	این بیمارستانها
-2.633323	این تعداد
-2.633323	این تلخی‌ها
-2.633323	این خبر
-2.633323	این دوره‌ی
-2.633323	این رقم
-2.633323	این رویکرد
-2.633323	این سوال
-2.633323	این شبکه
-2.633323	این شرایط
-2.633323	این طرح
-2.633323	این مبلغ
-2.633323	این مسابقه
-2.633323	این مشکلات
-2.633323	این مصاحبه
-2.633323	این مقطع
-2.633323	این مورد
-2.633323	این مکان
-2.633323	این نمایشگاه
-2.633323	این نوع
-1.516006	این ورزش
-2.633323	این وسیله
-2.633323	این پروژه
-2.633323	این کارت
-2.633323	این گزارش
-2.633323	این گفت
-2.633323	این یادمان
-1.566377	اینده ,
-1.566377	اینده در
-1.566377	اینده نزدیک
-1.691315	اینکه انها
-0.5739979	اینکه سازمان
-1.691315	اینکه قیمت
-1.089255	این‌که "
-2.607769	با 14
-2.607769	با استناد
-2.607769	با اشرار
-2.607769	با اقتضایات
-2.607769	با اهانت
-2.607769	با این
-2.607769	با بحث
-2.607769	با به
-2.607769	با بیان
-1.490452	با تاکید	-0.06692046
-2.607769	با تصویب
-2.607769	با تهیه
-1.499693	با توجه	-0.4893624
-2.607769	با حضرت
-1.490452	با حوزه	0.1294002
-2.607769	با خارج
-2.607769	با خبرنگار
-2.607769	با خود
-2.607769	با سایر
-2.607769	با سرزمین
-2.607769	با شرح
-2.607769	با عراق
-2.607769	با قاچاق
-2.607769	با مشاور
-2.607769	با موتورسیکلت-
-2.607769	با نرخ
-2.607769	با هجمه
-2.607769	با پراید370
-2.607769	با یکدیگر
-1.089255	بازار کم
-1.089255	بازارها در
-1.089255	بازارهای جهانی
-1.089255	بازاموزی و
-1.089255	بازرسی کانون
-1.089255	بازرگانی- </s>
-1.089255	بازماندگان بیمه
-1.390285	بازگشت .
-1.390285	بازگشت حجاج
-1.089255	بازی می
-1.089255	باستانی در
-1.566377	باشد به
-1.566377	باشد و
-1.566377	باشد ولی
-1.089255	باشند .
-1.089255	باشید انها
-1.089255	باعث رونق
-1.089255	باقاچاق کالا
-1.089255	بالغ می
-1.089255	بانک های
-1.089255	باکو :
-1.867406	باید بتواند
-0.7500891	باید به
-1.867406	باید تحت
-1.867406	باید در
-1.867406	باید چگونه
-1.089255	ببرم و
-1.089255	بتواند کالای
-1.390285	بحث و
-1.390285	بحث یارانه
-1.390285	بحران تعطیلی
-1.390285	بحران مخاطب
-0.2729678	بخش خصوصی
-1.089255	بخشی از
-1.089255	بخوانید .
-1.089255	بدهی هاکل
-1.089255	بدهی‌ها و
-1.089255	بدهی‌های شرکت‌های
-1.089255	بدیهی است
-2.089255	بر ان‌ها
-2.089255	بر او
-2.089255	بر این
-0.9719378	بر اینکه
-2.089255	بر بودجه
-2.089255	بر تعداد
-2.089255	بر سرنوشت
-2.089255	بر نقش
-2.089255	بر نمایندگی
-1.089255	برابر افزایش
-1.089255	براساس ان
-1.089255	براندو بازی
-2.168437	برای 10
-2.168437	برای اجرای
-2.168437	برای ارتقای
-2.168437	برای بازماندگان
-2.168437	برای برخی
-2.168437	برای تولید
-2.168437	برای جبران
-2.168437	برای حکومت‌گران
-2.168437	برای خرید
-2.168437	برای خود
-2.168437	برای رسیدن
-2.168437	برای مبارزه
-1.089255	برخوردار نیستند
-1.089255	برخی مشکل
-0.2729678	بررسی ارتباط
-1.089255	برساند ولی
-1.089255	برشمرد :
-1.089255	برطرف نخواهد
-1.089255	برق و
-1.089255	برلین متولد
-1.089255	برمی‌خورد زیرا
-0.4490591	برنامه ریزی
-1.566377	برنامه های
-1.089255	برنامه‌های هاشمی
-1.089255	برکت ,
-0.4583003	برگزار می	-0.365488
-0.5739979	برگزاری انتخابات
-1.691315	برگزاری بازاموزی
-1.691315	برگزاری مراسم
-1.390285	بزرگترین نمایشگاه
-1.390285	بزرگترین پایانه
-1.089255	بسته شدن
-1.089255	بسزایی دارد
-1.566377	بسیار داشتیم
-1.566377	بسیار مهم
-1.566377	بسیار پایین
-1.089255	بشوند ,
-1.089255	بعثه مقام
-0.4583003	بعد از
-1.089255	بفروشد و
-1.089255	بلژیک برگزار
-1.390285	بلکه از
-1.390285	بلکه تنها
-1.089255	بنا احداث
-1.089255	بنابراین برای
-1.089255	بند "
-2.99774	به 14
-2.99774	به 80
-1.880423	به اثار
-2.99774	به اخذ
-2.99774	به استفاده
-2.99774	به اعتقاد
-2.99774	به اموزش
-1.880423	به اهداف
-2.99774	به او
-2.99774	به اوراق
-1.880423	به این
-2.99774	به اینکه
-2.99774	به بخش
-2.99774	به بررسی
-2.99774	به بند
-2.99774	به بیش
-2.99774	به بیمه
-2.99774	به تعداد
-2.99774	به تهران
-2.99774	به توپ
-2.99774	به جایگاه
-2.99774	به حدود
-2.99774	به حفاری
-2.99774	به حکومت
-2.99774	به خاطر
-2.99774	به خاموشی
-2.99774	به راحتی
-2.99774	به روز
-2.99774	به زبان
-2.99774	به زوجین
-2.99774	به ستاد
-2.99774	به سخن
-2.99774	به سربلندی
-2.99774	به شکل
-2.99774	به صحفی
-1.889664	به صورت
-2.99774	به طور
-1.880423	به عبارتی
-1.889664	به عنوان
-2.99774	به قید
-2.99774	به لندن
-2.99774	به مالکیت
-2.99774	به مدیر
-2.99774	به مذاکرات
-2.99774	به مشکل
-2.99774	به مصرف
-1.889664	به منظور
-2.99774	به موجب
-2.99774	به موقع
-2.99774	به نام
-2.99774	به نامjournal
-2.99774	به نشریات
-2.99774	به نظر
-1.880423	به نمایش
-2.99774	به نهادهای
-2.99774	به هر
-2.99774	به هلاکت
-2.99774	به همراه
-2.99774	به وجود
-2.99774	به پیروزی
-2.99774	به چه
-2.99774	به کارهایی
-2.99774	به کشورشان
-1.466221	به گزارش	0.01500061
-2.99774	به گفته
-2.99774	به گفته‌ی
-2.99774	به یک
-1.390285	بهداشت روان
-1.390285	بهداشت و
-1.089255	بهمن ‌1357
-1.390285	بوجود امده
-1.390285	بوجود بیاورید
-1.691315	بود .
-1.691315	بود حافظ
-0.5739979	بود و
-0.4490591	بودجه ,
-1.566377	بودجه سال
-1.089255	بودند سابقه‌ای
-1.566377	بوده است
-0.4490591	بوده که
-1.089255	بوزارت پاریس
-1.089255	بپردازد .
-1.089255	بپردازند .
-1.390285	بیان این‌که
-1.390285	بیان کرد
-1.089255	بیاورید .
-1.089255	بیت‌المال‌ و
-0.2729678	بیش از
-1.390285	بیشتر به
-1.390285	بیشتر شود
-1.089255	بیشتری وجود
-1.089255	بیل گیتس
-0.2729678	بیلیون دلار
-1.089255	بیمارستان تحت
-1.089255	بیمارستانها مشکل
-2.043498	بیمه از
-0.9354215	بیمه شده	-0.08636974
-0.9261804	بیمه عمر
-2.043498	بیمه های
-2.043498	بیمه گذار
-2.043498	بیمه گر
-1.788225	بین الملل
-1.788225	بین المللی
-1.788225	بین رهبران
-1.788225	بین شهرها
-1.788225	بین مسوولان
-1.089255	بین‌المللی و
-1.089255	بی‌ازار ,
-1.089255	بی‌توجهی دانشجویان
-2.089255	تا 3
-2.089255	تا جایی
-2.089255	تا زمانی
-2.089255	تا سوم
-2.089255	تا عوامل
-2.089255	تا نهم
-2.089255	تا نیمه60
-2.089255	تا پایان
-2.089255	تا پس
-2.089255	تا گرایش
-1.390285	تاریخ انقلاب
-1.390285	تاریخ خبرگزاری
-1.089255	تاریخچه مایکروسافت
-1.089255	تازه‌ای را
-1.390285	تاسیس بانک
-1.390285	تاسیس شد
-1.089255	تاش ,
-1.089255	تان یک
-1.089255	تاکنون به
-0.5739979	تاکید بر	-0.1526407
-1.691315	تاکید داشتند
-1.691315	تاکید کرد
-1.089255	تبریز برای
-1.089255	تبعید در
-1.089255	تجزیه ,
-1.089255	تجسمی- </s>
-1.691315	تحت عنوان
-0.5739979	تحت پوشش
-1.691315	تحت کنترل
-1.089255	تحقق انها
-1.691315	تحقیقات صنعتی
-1.691315	تحقیقات مرزهای
-1.691315	تحقیقات و
-1.691315	تحقیقات کاربردی
-1.089255	تحلیل و
-1.089255	تحمیل کرد
-1.390285	تحویل قطعی
-1.390285	تحویل موقت
-1.089255	تر است
-1.089255	ترافیک تهرانتوزیع
-1.089255	ترافیکی مرکز
-1.089255	تردد بین
-1.089255	تسلیم خواسته‌های
-1.089255	تصاحب بازارهای
-1.089255	تصویب لایحه‌ای
-1.566377	تعداد در
-1.566377	تعداد زندانیان
-1.566377	تعداد موسسات
-1.089255	تعریف کرده
-1.089255	تعطیلی مدارس
-1.089255	تعیین شده
-1.089255	تغذیه شما
-1.089255	تلاشی برای
-1.089255	تلخ کنم
-1.089255	تلخی‌ها بسیار
-1.089255	تلفن ثابت
-1.089255	تماما نقاطی
-1.089255	تمامی اجناس
-1.691315	تنها 23
-1.691315	تنها تردد
-1.691315	تنها طی
-1.691315	تنها می‌تواند
-1.089255	تهدیدات خارجی
-0.6709079	تهران -
-1.788225	تهران است
-1.788225	تهران بازگشت
-1.788225	تهران گفت
-1.089255	تهرانتوزیع کالاهای
-1.089255	تهیه بخشی
-1.089255	توانندنامزد دریافت
-0.583239	توجه به
-1.691315	توجه کنید
-1.089255	تودیع و
-1.566377	توسط بیل
-1.566377	توسط خیران
-1.566377	توسط دولت
-1.390285	توسعه صنایع
-1.390285	توسعه و
-1.089255	توصیه موکد
-1.089255	تولید qq6
-1.089255	توپ بسته
-1.089255	تکلیف صاحبان
-1.390285	تیر با
-1.390285	تیر بود
-1.089255	تیمور شرقی
-1.089255	ثابت و
-1.089255	ج "
-1.089255	جابه جایی
-1.089255	جانبی نیز
-1.089255	جانی‌پور ,
-1.089255	جایزه 60
-1.390285	جایگاه "
-1.390285	جایگاه اعمال
-1.089255	جایگزین گردد
-1.390285	جایی مسافر
-1.390285	جایی که
-1.089255	جبران ان
-1.089255	جدی شدن
-1.089255	جدید کمیسیون
-1.089255	جز ارقام
-1.089255	جزو طرفداران
-1.390285	جشنواره بین
-1.390285	جشنواره سخنرانی
-1.089255	جلالی‌ اقدام
-1.089255	جلوه دهد
-1.089255	جمالی‌فرد ,
-1.089255	جمع‌اوری و
-1.390285	جنگ (
-1.390285	جنگ جهانی
-1.390285	جهانی بحث
-1.390285	جهانی دانست
-1.089255	جهت استفاده
-1.089255	جوانان و
-1.089255	حاتمی کیا
-1.089255	حادتر می
-1.089255	حادثه هفت
-1.089255	حاضر منابع
-1.089255	حافظ منافع
-1.390285	حال ,
-1.390285	حال حاضر
-1.089255	حتما این
-1.089255	حتی کنگره
-1.691315	حج زده‌اند
-0.583239	حج و	-0.6167988
-1.089255	حجاج اسیای
-1.089255	حجتی کرمانی
-1.089255	حجت‌الاسلام کروبی
-1.691315	حدود 30
-1.691315	حدود 4/
-1.691315	حدود 50
-1.691315	حدود هشت
-1.089255	حروفچینی به
-1.089255	حساس خواه
-0.2729678	حضرت امام
-1.089255	حضور داشت
-1.089255	حفاری و
-1.089255	حفاظت و
-1.089255	حق بیمه
-1.089255	حقوق- </s>
-1.390285	حل نمی‌کند
-1.390285	حل و
-0.4490591	حمایت از
-1.566377	حمایت قرار
-1.089255	حمل و
-0.2729678	حوزه نمایندگی	-0.01079823
-1.089255	حکمی به
-1.390285	حکومت درمقام
-1.390285	حکومت کند
-1.089255	حکومت‌گران دیگر
-1.390285	خارج علیه
-1.390285	خارج منعقد
-1.089255	خارجی را
-1.089255	خاطر می
-0.2729678	خاطرنشان کرد	-0.1583108
-1.089255	خاموشی گرایید
-1.566377	خانواده اش
-1.566377	خانواده در
-1.566377	خانواده و
-1.089255	خانواده‌هایی باید
-1.089255	خبر را
-1.566377	خبرنگار ایسنا
-1.566377	خبرنگار صنعت
-1.566377	خبرنگار گروه
-1.089255	خبرگان رهبری
-1.089255	خبرگزاری دانشجویان
-1.089255	خداحافظ پدر
-1.566377	خدمت به
-1.566377	خدمت فراهم
-1.566377	خدمت کند
-1.089255	خدوم و
-1.089255	خراسان رضوی
-1.089255	خرید خود
-1.089255	خریدار معینی
-1.089255	خسروی بزرگترین
-1.089255	خشایان جلالی‌
-1.089255	خصوص واگذاری
-1.566377	خصوصی سازی
-1.566377	خصوصی که
-1.566377	خصوصی گفت
-1.089255	خلاف ان
-1.089255	خلال این
-1.089255	خلیج فارس
-1.089255	خمینی (
-1.089255	خواربار در
-1.089255	خواست بفروشد
-1.089255	خواسته‌های عراق
-1.089255	خواه ,
-1.934353	خواهد خورد
-0.4028336	خواهد شد	-0.2336413
-1.934353	خواهد کرد
-1.934353	خواهد یافت
-1.089255	خواهیم اندیشید
-1.089255	خوب جلوه
-2.089255	خود از
-2.089255	خود انتخاب
-2.089255	خود تعریف
-0.30103	خود را	-0.05357108
-2.089255	خود سیوال
-2.089255	خود همراه
-1.089255	خودرو ایسنا
-1.390285	خودروسازی در
-1.390285	خودروسازی و
-1.089255	خودروهایی چه
-1.089255	خودش بر
-1.089255	خودمان هم
-1.089255	خورد .
-1.089255	خیران و
-1.089255	خیرخواهانه و
-1.089255	داخل چه
-1.566377	داخلی ,
-1.566377	داخلی است
-1.566377	داخلی و
-1.390285	داده است
-1.390285	داده اید
-1.089255	داده‌اند ,
-1.089255	دادگاه کشور
-1.089255	دارایی هاسال
-1.089255	دارایی‌ها و
-1.089255	دارایی‌های شرکت‌های
-0.2567056	دارد .	1.726252
-1.788225	دارد لزوم
-1.566377	دارویی ,
-1.566377	دارویی را
-1.566377	دارویی کشور
-1.089255	داریم که
-1.390285	داشت علاوه
-1.390285	داشت که
-1.089255	داشتند .
-1.089255	داشته است
-1.089255	داشتیم نمی‌خواهم
-1.089255	دانست .
-1.390285	دانش سرشار
-1.390285	دانش شاخص
-1.566377	دانشجویان ایران
-1.566377	دانشجویان مسلمان
-1.566377	دانشجویان نسبت
-1.788225	دانشگاه با
-1.788225	دانشگاه به
-1.788225	دانشگاه بوزارت
-1.788225	دانشگاه صنعتی
-1.788225	دانشگاه علوم
-1.089255	دانشگاهی ,
-1.089255	داوطلب اعزام
-1.089255	داکینو "
-1.089255	دبیر جشنواره
-1.089255	دبیران کل
-3.057738	در ابتدای
-1.949662	در ادامه
-3.057738	در اسفند
-1.940421	در اقتصاد
-3.057738	در امر
-3.057738	در ان
-3.057738	در اواخر
-3.057738	در ایجاد
-1.940421	در ایران
-1.01424	در این
-1.940421	در اینده
-3.057738	در باکو
-3.057738	در برلین
-3.057738	در برنامه‌های
-3.057738	در بلژیک
-3.057738	در بین
-3.057738	در تاریخ
-3.057738	در تحقیقات
-3.057738	در تیمور
-3.057738	در جمع‌اوری
-3.057738	در حال
-3.057738	در حج
-3.057738	در حدود
-3.057738	در خارج
-3.057738	در خصوص
-3.057738	در خلال
-3.057738	در داخل
-3.057738	در دنیاست
-3.057738	در دوران
-3.057738	در دین
-3.057738	در ذهن
-3.057738	در راستای
-1.949662	در زمینه
-1.269513	در سال
-3.057738	در سینمای
-3.057738	در شهر
-3.057738	در شورای
-3.057738	در صورت
-1.940421	در طول
-1.940421	در طی
-3.057738	در عراق
-3.057738	در عمل
-3.057738	در قانون
-3.057738	در قسمتی
-3.057738	در قصر
-3.057738	در مجلات
-3.057738	در مجلس
-3.057738	در مجموع
-3.057738	در مراسم
-3.057738	در مرز
-1.940421	در مقابل
-3.057738	در مقامات‌
-3.057738	در مقایسه
-1.949662	در منطقه
-3.057738	در مورد
-3.057738	در نوجوانان
-3.057738	در نیومکزیکو
-1.940421	در هر
-3.057738	در پاریس
-3.057738	در پاسخ
-3.057738	در پایان
-3.057738	در پیچ
-3.057738	در کار
-3.057738	در کتابخانه
-3.057738	در کشوررومانی
-3.057738	در کی
-3.057738	در گروه
-3.057738	در یک
-1.089255	دراید .
-1.089255	درباره‌ی تاریخچه
-1.089255	درتقسیم‌ بیت‌المال‌
-1.089255	درحالیکه تا
-1.089255	درخواهد امد
-1.089255	درس و
-1.691315	درصد زوج‌هاو
-1.691315	درصد و
-0.5739979	درصد پیشرفت	0.1294002
-1.089255	درمقام مسیولان
-1.089255	درک شرایط
-1.390285	درگیری ایجاد
-1.390285	درگیری با
-1.390285	دریافت جایزه
-1.390285	دریافت مبلغ
-1.089255	دریغ نخواهد
-1.089255	دسامبر در
-1.089255	دست به
-1.089255	دستگیری از
-1.089255	دشمنان بر
-1.089255	دفن به
-1.089255	دقیقه و
-1.566377	دلار به
-1.566377	دلار خود
-1.566377	دلار سرمایه‌گذاری
-1.089255	دلاری یونسکو
-1.089255	دلسوز سابق
-1.089255	دنیاست و
-1.089255	دهد .
-1.089255	دو نوع
-1.089255	دوازدهمین جشنواره
-1.566377	دوران تبعید
-1.566377	دوران فراصنعتی
-1.566377	دوران گذشته
-1.390285	دوره‌ی شکوفایی
-1.390285	دوره‌ی مشروطیت
-1.089255	دوشنبه طی
-1.390285	دولت ,
-1.390285	دولت دراید
-2.089255	دکتر اصفهانی
-2.089255	دکتر انصاری
-2.089255	دکتر برکت
-2.089255	دکتر بی‌ازار
-2.089255	دکتر جانی‌پور
-2.089255	دکتر حساس
-2.089255	دکتر رستمی
-2.089255	دکتر عبدالحسین
-2.089255	دکتر همتی
-2.089255	دکتر یحیی‌زاده
-1.089255	دکتری خود
-1.089255	دگرگون شد
-1.089255	دی تنها
-1.089255	دیده می‌شود
-1.089255	دیدگاهی خلاف
-1.089255	دین اسلام
-1.089255	دیه‌ی استان
-1.089255	دیوارکشی نیروگاه
-1.390285	دیگر ,
-1.390285	دیگر سرزمین
-1.089255	دیگری از
-1.089255	ذایقه‌ها را
-1.089255	ذخیره کرده
-1.089255	ذهن ,
-1.089255	ذکر کرد
-1.089255	ذیل به
-1.089255	ذینفع او
-2.551653	را افزایش
-2.551653	را اندازه
-1.434336	را با
-2.551653	را باید
-2.551653	را بخوانید
-2.551653	را بر
-2.551653	را برای
-2.551653	را برطرف
-0.763428	را به
-2.551653	را بوجود
-2.551653	را تلخ
-2.551653	را حل
-2.551653	را خوب
-2.551653	را در
-1.434336	را دکتر
-2.551653	را علاوه
-2.551653	را فراموش
-2.551653	را متناسب
-2.551653	را مختل
-2.551653	را موجب
-2.551653	را چنین
-2.551653	را کسب
-2.551653	را یکجا
-1.089255	راحتی تسلیم
-1.089255	راستای ارتقای
-1.089255	راه اندازی
-1.089255	رحمانی نیا
-1.089255	رسالت وماموریت‌های
-1.089255	رستمی بیان
-1.089255	رسیدن به
-1.089255	رسیدند .
-1.089255	رسیده و
-1.089255	رشته های
-1.089255	رشد زیادی
-1.089255	رضایت انان
-1.089255	رضوی ,
-1.089255	رفاه در
-1.089255	رفتار نوجوان
-1.089255	رفع شود
-1.089255	رقابت با
-1.089255	رقم تنها
-1.566377	ره )
-1.566377	ره در
-1.566377	ره چرا
-1.089255	رهبران نهضت
-1.566377	رهبری )
-1.566377	رهبری از
-1.566377	رهبری به
-1.089255	روابط عمومی
-1.089255	روان اموزش
-1.089255	روانشناس مشهور
-1.691315	روز به
-1.691315	روز حادتر
-1.691315	روز دوشنبه
-1.691315	روز ‌12
-1.089255	روزنامه‌های متنوعی
-1.089255	روزگار حروفچینی
-1.089255	رونق صنعت
-1.089255	رویکرد هماهنگ
-1.089255	ریال )
-1.390285	ریزی ,
-1.390285	ریزی و
-1.390285	رییس سازمان
-1.390285	رییس شرکت
-1.089255	زباله‌ها این
-1.089255	زبان انگلیسی
-1.089255	زحمتکش صنعت
-1.089255	زده‌اند گفت
-1.089255	زرین کوب
-1.566377	زمان ,
-1.566377	زمان افرادی
-1.566377	زمان کوتاه
-1.089255	زمانی که
-1.089255	زمین و
-1.691315	زمینه اموزش
-1.691315	زمینه برگزاری
-1.691315	زمینه تحقق
-1.691315	زمینه عملکرد
-1.089255	زمینه‌های‌ اقتصادی
-1.089255	زنجیره ای
-1.089255	زندانیان ازاد
-1.390285	زنده را
-1.390285	زنده ماندن
-1.390285	زندگی بوده
-1.390285	زندگی و
-1.089255	زوج ,
-1.089255	زوجین اهدا
-1.089255	زوج‌هاو حجت‌الاسلام
-1.089255	زیادی کردند
-1.566377	زیارت ایران
-1.566377	زیارت با
-1.566377	زیارت کاملا
-1.089255	زیر بنا
-1.089255	زیرا از
-1.089255	زیگموید فروید
-1.089255	سابق ترافیک
-1.089255	سابقه‌ای در
-1.089255	ساختمان‌های جانبی
-0.7500891	سازمان حج	-0.07023308
-0.7500891	سازمان صنایع	-0.09741287
-1.867406	سازمان ملی
-1.867406	سازمان گسترش
-1.089255	سازمان‌های غیردولتی
-1.089255	سازی را
-2.130648	سال 1366
-2.130648	سال 1922
-2.130648	سال 1933
-2.130648	سال 1968
-2.130648	سال 1969
-2.130648	سال 1975
-2.130648	سال 1992
-2.130648	سال 80
-2.130648	سال 81
-2.130648	سال افزایش
-2.130648	سال حدود
-1.089255	ساله شد
-1.089255	سال‌های بعد
-1.089255	ساوه وجاده
-1.089255	سایر مراکز
-1.390285	سبب ارتقای
-1.390285	سبب شده
-1.390285	ستاد دیه‌ی
-1.390285	ستاد مبارزه
-1.089255	سختمعاون برنامه
-1.089255	سخن دیگر
-1.089255	سخنرانی می
-1.089255	سرانه تعیین
-1.089255	سربلند ,
-1.089255	سربلندی و
-1.089255	سرخس به
-1.390285	سرزمین ایران
-1.390285	سرزمین وحی
-1.089255	سرشار مدیران
-1.390285	سرمایه را
-1.390285	سرمایه گذاری
-1.089255	سرمایه‌گذاری انجام
-1.089255	سرنوشت وی
-1.089255	سطح علمی
-1.390285	سفر مشهد
-1.390285	سفر کربلای
-1.089255	سلسله یادداشت‌هایی
-1.089255	سمفونیک افرادی
-1.390285	سنتی اموزش
-1.390285	سنتی به
-1.089255	سهام اختصاص
-1.089255	سوال که
-1.089255	سود بسیار
-1.089255	سوم بالغ
-1.390285	سوی مقام
-1.390285	سوی نهاد‌ها
-1.089255	سپری .
-1.390285	سکه از
-1.390285	سکه و
-1.089255	سیاسی و
-1.089255	سیدجوادی خاطرنشان
-1.390285	سیستم مسیریاب
-1.390285	سیستم مشخص
-1.566377	سیمان با
-1.566377	سیمان تحت
-1.566377	سیمان سازمان
-1.089255	سینا ,
-1.089255	سینما و
-1.390285	سینمای ایران
-1.390285	سینمای هنری
-1.089255	سینمایی به
-1.089255	سیوال می
-1.390285	سیگار اعضای
-1.390285	سیگار اولین
-1.566377	شاخص اصلی
-1.566377	شاخص و
-1.566377	شاخص وزارت
-1.089255	شاه این
-1.089255	شاهد علاقه
-1.089255	شایان مدیر
-1.566377	شبکه اول
-1.566377	شبکه به
-1.566377	شبکه فیبر
-1.089255	شخص بیمه
-1.089255	شخصی تان
-2.168437	شد ,
-0.5779098	شد .	0.9834007
-1.051119	شد ;
-2.168437	شد </s>
-2.168437	شد که
-1.691315	شدن امکانات
-1.691315	شدن جنگ
-1.691315	شدن مجلس
-1.691315	شدن نفت
-1.089255	شدند که
-1.085881	شده ,
-0.6716789	شده است
-2.203199	شده با
-2.203199	شده تا
-2.203199	شده توسط
-1.085881	شده در
-2.203199	شده و
-2.203199	شده که
-1.691315	شرایط ان
-1.691315	شرایط تحویل
-1.691315	شرایط معامله
-1.691315	شرایط پدر
-1.089255	شرح فعالیت
-1.089255	شرقی می‌توانید
-1.390285	شرکت برق
-1.390285	شرکت مایکروسافت
-0.2729678	شرکت‌های سیمان
-1.089255	شریف مقام
-1.089255	شغلی را
-1.390285	شما در
-1.390285	شما چقدر
-1.089255	شناسایی بیشتری
-1.089255	شهداد کرمان
-1.566377	شهر البوکورکو
-1.566377	شهر صادر
-1.566377	شهر که
-1.089255	شهرام ناظری
-1.089255	شهرداری این
-1.089255	شهرها را
-1.089255	شهری نیز
-1.089255	شهید زنده
-2.235383	شود ,
-0.6448566	شود .	0.9834007
-2.235383	شود ?
-1.118066	شود تا
-2.235383	شود در
-2.235383	شود و
-2.235383	شود گفت
-1.390285	شورای شهر
-1.390285	شورای عمومی
-1.089255	شوند ,
-1.089255	شکست خواهد
-1.089255	شکل امروز
-1.089255	شکوفایی مطبوعات
-1.089255	صاحبان چنین
-1.089255	صادر خواهد
-1.089255	صالحی ,
-1.089255	صانعی ,
-1.089255	صحفی نوشت
-1.089255	صحنه و
-1.089255	صحیح این
-1.089255	صدیق و
-1.089255	صلح انجام
-1.788225	صنایع ایران
-1.788225	صنایع خودروسازی
-0.6709079	صنایع ملی
-1.788225	صنایع نمی‌توانستند
-1.566377	صنعت خودرو
-1.566377	صنعت خودروسازی
-1.566377	صنعت گردشگری
-1.390285	صنعتی استان
-1.390285	صنعتی شریف
-1.691315	صورت داوطلب
-1.691315	صورت سرانه
-1.691315	صورت غیرقانونی-
-1.691315	صورت فوت
-1.089255	طبیعی است
-1.566377	طراحی ,
-1.566377	طراحی صحنه
-1.566377	طراحی فیلم
-1.390285	طرح باعث
-1.390285	طرح به
-1.089255	طرف محمدعلی
-1.089255	طرفداران اثار
-1.089255	طور گسترده
-1.390285	طول 10
-1.390285	طول زندگی
-1.934353	طی 24
-1.934353	طی برنامه
-1.934353	طی حکمی
-1.934353	طی سال‌های
-1.934353	طی سلسله
-1.934353	طی هشت
-1.934353	طی چند
-1.089255	ظرفیت‌ها و
-1.089255	ظواهر امر
-1.390285	عالی و
-1.390285	عالی کشور
-1.089255	عامل ستاد
-1.390285	عبارتی ,
-1.390285	عبارتی بعد
-1.089255	عباس علی‌ابادی
-1.089255	عبدالحسین زرین
-1.089255	عبرت‌های نهضت
-1.089255	عدم امنیت
-1.566377	عراق شود
-1.566377	عراق مجهزتر
-1.566377	عراق و
-1.089255	عرضه‌کننده کالا
-1.089255	عزت و
-1.089255	عضویت مشکل
-1.089255	علاقه مردم
-0.2729678	علاوه بر
-1.089255	علت قابل
-1.089255	علمی و
-1.934353	علوم ,
-0.8262771	علوم دارویی
-1.934353	علوم در
-1.934353	علوم مقالات
-1.934353	علوم پزشکی
-1.390285	علی سینا
-1.390285	علی پیروی
-1.089255	علیه اسلام
-1.089255	علیهما السلام
-1.089255	علی‌ابادی ,
-1.089255	علی‌البدل شورای
-1.390285	عمر ;
-1.390285	عمر از
-1.089255	عمل و
-1.089255	عملکرد انجمن
-1.089255	عموم مردم
-1.390285	عمومی را
-1.390285	عمومی وزارت
-1.788225	عنوان حق
-1.788225	عنوان دبیر
-1.788225	عنوان شرکت
-1.788225	عنوان شهید
-1.788225	عنوان معابر
-1.089255	عوامل اثرگذار
-1.089255	غم‌های خود
-1.089255	غیردولتی که
-1.089255	غیرقانونی- انجام
-1.089255	فارس در
-1.089255	فاصله ها
-1.089255	فراصنعتی و
-1.089255	فراموش کرده‌اند
-1.390285	فرانسه ,
-1.390285	فرانسه است
-1.390285	فراهم است
-1.390285	فراهم شدن
-1.089255	فردوسی پور
-1.089255	فرزندان خود
-0.2729678	فرهنگ و
-1.089255	فرهنگی توجه
-1.089255	فرهنگی‌ای است
-1.089255	فروش مفسر
-1.089255	فروشگاه های
-1.390285	فروید در
-1.390285	فروید روانشناس
-1.089255	فصل کنند
-1.390285	فعالیت های
-1.390285	فعالیت کرده
-1.089255	فعالیت‌های شاخص
-1.390285	فقه سنتی
-1.390285	فقه و
-1.390285	فقیه (
-1.390285	فقیه در
-1.089255	فناوری در
-1.089255	فنی کارکنان
-1.089255	فهم و
-1.089255	فوت یا
-1.089255	فیبر نوری
-1.390285	فیزیکی دارد
-1.390285	فیزیکی و
-1.390285	فیلم اشتغال
-1.390285	فیلم سینمایی
-1.089255	فیلم‌های کوتاه
-1.089255	قابل پیشگیری
-1.566377	قانون بودجه
-1.566377	قانون حفاظت
-1.566377	قانون و
-1.089255	قاچاق کالا
-1.089255	قبلی و
-1.788225	قرار بود
-1.788225	قرار شده
-1.788225	قرار گرفتن
-1.788225	قرار گرفته
-1.788225	قرار گیرند
-1.089255	قراردادهایی است
-1.089255	قرارگیرد .
-1.089255	قران و
-1.089255	قرعه و
-1.089255	قسمتی از
-1.089255	قصر الکساندر
-1.089255	قطعات اجرایی
-1.089255	قطعی سیستم
-1.089255	قفسه را
-1.089255	قویتر می‌سازند
-1.089255	قید قرعه
-1.566377	قیمت اکثر
-1.566377	قیمت تمامی
-1.566377	قیمت خواربار
-1.089255	لابد به
-1.390285	لازم برای
-1.390285	لازم به
-1.089255	لایحه‌ای توسط
-1.089255	لزوم بررسی
-1.390285	لندن برگزار
-1.390285	لندن مهاجرت
-1.089255	لواسان ,
-1.390285	ما مثل
-1.390285	ما هم
-1.089255	مادا مارلون
-1.089255	مادرها از
-1.089255	مارلون براندو
-1.089255	مالکیت دولت
-1.089255	مالی بازار
-1.089255	مامور برگزاری
-1.089255	ماموریت‌های فرهنگی
-1.089255	ماندن شخص
-1.089255	مانند فروشگاه
-1.566377	ماه اینده
-1.566377	ماه طبیعی
-1.566377	ماه گذشته
-1.089255	ماهانه تغذیه
-1.390285	مایل است
-1.390285	مایل هستند
-1.566377	مایکروسافت امده
-1.566377	مایکروسافت به
-1.566377	مایکروسافت توسط
-1.390285	مبارزه با
-1.390285	مبارزه باقاچاق
-1.566377	مبلغ حدود
-1.566377	مبلغ سرمایه
-1.566377	مبلغ معینی
-1.089255	متاسفانه از
-1.089255	متبوع خودش
-1.089255	متر مربع
-1.390285	متعهد می
-1.390285	متعهد و
-1.089255	متناسب با
-1.089255	متنوعی چاپ
-1.089255	متوجه نشوند
-1.089255	متولد شد
-1.089255	مثل هم
-1.089255	مجال خدمت
-1.089255	مجلات بین‌المللی
-1.390285	مجلس از
-1.390285	مجلس خبرگان
-1.089255	مجله علوم
-1.089255	مجموع این
-1.089255	مجهزتر و
-1.089255	مجوز لازم
-1.089255	محصول سال
-1.089255	محمدعلی شاه
-1.089255	محمدی ,
-1.089255	محیط خانواده
-1.089255	مخاطب ومهجوریت
-1.089255	مختل می
-1.089255	مختلف به
-1.089255	مد نظر
-1.089255	مدارس فرزندان
-1.089255	مدت ان
-1.390285	مدیر عامل
-1.390285	مدیر کاروان
-1.089255	مدیران خدوم
-1.089255	مدیرکل استاندارد
-1.089255	مدیریتی بود
-1.089255	مذاکرات انجام
-1.089255	مرادخانی ,
-1.390285	مراسم تودیع
-1.390285	مراسم هفتم
-1.089255	مراکز مانند
-1.089255	مربع زیر
-1.089255	مرتب بر
-1.089255	مرتضوی ,
-1.089255	مرحله درگیری
-1.566377	مردم به
-1.566377	مردم در
-1.566377	مردم می‌تواند
-1.390285	مرز خسروی
-1.390285	مرز سرخس
-1.390285	مرزهای دانش
-1.390285	مرزهای کشور
-1.390285	مرکز شهر
-1.390285	مرکز موسیقی
-1.390285	مرگ برای
-1.390285	مرگ و
-1.089255	مزمن ترافیکی
-1.089255	مسابقه کاریکاتور
-1.089255	مسافر با
-1.089255	مسجدجامعی روز
-1.089255	مسلح 6
-1.089255	مسلمان "
-1.089255	مسوول برگزاری
-1.089255	مسوولان وزارت
-1.089255	مسیریاب (
-1.089255	مسیولان یا
-1.089255	مشاغل سختمعاون
-1.089255	مشاور امور
-1.390285	مشاوره در
-1.390285	مشاوره و
-1.390285	مشخص شود
-1.390285	مشخص گردد
-1.089255	مشروطیت ,
-1.089255	مشهد برای
-1.089255	مشهور است
-1.788225	مشکل اصلی
-1.788225	مشکل باشد
-1.788225	مشکل برمی‌خورد
-1.788225	مشکل داریم
-1.788225	مشکل عدم
-1.566377	مشکلات ان
-1.566377	مشکلات رفع
-1.566377	مشکلات چندانی
-1.089255	مصاحبه ایرج
-1.566377	مصرف ان
-0.4490591	مصرف سیگار
-1.089255	مصطفی یعقوبی
-1.089255	مطالب نبوده
-1.390285	مطبوعات به
-1.390285	مطبوعات رشد
-1.089255	مطرح بوده
-1.089255	معابر شهری
-1.089255	معارفه دبیران
-1.089255	معامله صحیح
-1.089255	معضل مزمن
-0.2729678	معظم رهبری
-1.089255	معلی به
-1.390285	معینی به
-1.390285	معینی را
-1.089255	مفسر (
-1.390285	مقابل دریافت
-1.390285	مقابل وجود
-1.089255	مقابله با
-1.089255	مقالات چاپ
-1.566377	مقام اول
-0.4490591	مقام معظم	0.1294002
-1.089255	مقامات‌ و
-1.089255	مقایسه با
-1.089255	مقطع حمایت
-1.788225	ملی (
-1.788225	ملی جوانان
-1.788225	ملی شدن
-1.788225	ملی وجود
-1.788225	ملی یونسکو
-1.089255	ممکن است
-1.089255	منابع مالی
-1.089255	منافع سیاسی
-1.089255	منتشر خواهد
-1.089255	منتقدسینما نیز
-1.566377	منطقه ,
-1.566377	منطقه باشد
-1.566377	منطقه شهداد
-1.566377	منظور توسعه
-1.566377	منظور خدمت
-1.566377	منظور رقابت
-1.089255	منعقد می‌کند
-1.089255	مهاجرت کرد
-1.089255	مهدی پنام
-1.089255	مهذب صانعی
-1.089255	مهم بیمه
-1.089255	موتورسیکلت- اگرچه
-1.089255	موتوری افزوده
-1.089255	موثری در
-1.390285	موجب امار
-1.390285	موجب فراهم
-1.691315	مورد تجزیه
-1.691315	مورد تحقیقات
-1.691315	مورد می
-1.691315	مورد نیاز
-1.089255	موسسات پیک
-1.089255	موسیقی قرار
-1.089255	موفق به
-1.089255	موقت و
-1.089255	موقع زباله‌ها
-1.089255	موکد کرده‌ایم
-1.089255	مکان را
-1.089255	مکشوفه باستانی
-2.344528	می توانندنامزد
-2.344528	می سپری
-2.344528	می شد
-0.3521825	می شود	0.03879116
-1.236452	می کند	-0.02180878
-1.22721	می کنند
-2.344528	می گیری
-2.344528	می یابد
-1.089255	میانه از
-1.089255	میر در
-1.089255	میزان فعالیت
-1.089255	میلا دی
-1.089255	میلاد محمدی
-1.566377	میلیون دلار
-1.566377	میلیون ریال
-1.566377	میلیون نفر
-1.089255	می‌اورد .
-1.390285	می‌تواند ظواهر
-1.390285	می‌تواند هر
-1.089255	می‌توانید شاهد
-1.089255	می‌دهد یک
-1.089255	می‌رسد که
-1.089255	می‌سازند .
-1.089255	می‌شود جایگزین
-1.089255	می‌پردازد در
-1.089255	می‌کند به
-1.089255	می‌کنند .
-1.089255	ناصری با
-1.089255	ناظری 55
-1.390285	نام ببرم
-1.390285	نام پدر
-1.089255	نامjournal of
-1.089255	نباید به
-1.089255	نبود .
-1.089255	نبوده ,
-1.089255	نحوه و
-1.089255	نخبگان به
-1.390285	نخواهد ورزید
-1.390285	نخواهد کرد
-1.089255	نداشتند .
-1.089255	نداشته باشد
-1.089255	نرخ سود
-1.390285	نزدیک به
-1.390285	نزدیک مجله
-1.089255	نزدیکان و
-1.089255	نسبت به
-1.089255	نشان می‌دهد
-1.390285	نشریات ذکر
-1.390285	نشریات را
-1.089255	نشوند که
-1.089255	نظامی امریکا
-1.691315	نظر انها
-1.691315	نظر دارایی‌ها
-1.691315	نظر قرار
-1.691315	نظر می‌رسد
-1.089255	نظیر کشور
-1.089255	نفت را
-1.390285	نفر از
-1.390285	نفر بوده
-1.089255	نقاطی هستند
-1.390285	نقش اساسی
-1.390285	نقش و
-1.089255	نماند .
-1.390285	نمایش درخواهد
-1.390285	نمایش گذاشته
-1.390285	نمایشگاه به
-1.390285	نمایشگاه هنری
-1.566377	نمایندگی در
-0.4490591	نمایندگی ولی	-0.06692046
-1.089255	نمی‌توان خریدار
-1.089255	نمی‌توانستند به
-1.089255	نمی‌خواهم نام
-1.089255	نمی‌شود .
-1.089255	نمی‌کند چرا
-1.089255	نه تنها
-1.390285	نهادهای اجتماعی
-1.390285	نهادهای عالی
-1.089255	نهاد‌ها و
-1.566377	نهضت اختلاف
-1.566377	نهضت شکست
-1.566377	نهضت ملی
-1.089255	نهضتی را
-1.089255	نهم اذرماه
-1.089255	نوامبر تا
-1.089255	نوجوان نقش
-1.089255	نوجوانان اهمیت
-1.089255	نوری کشور
-1.089255	نوسازی صنایع
-1.089255	نوشت :
-1.390285	نوع که
-1.390285	نوع کودکان
-1.089255	نوه زیگموید
-1.089255	نویسنده و
-1.089255	نژاد ,
-1.089255	نکته پایانی
-1.089255	نیا ,
-1.390285	نیاز این
-1.390285	نیاز به
-1.089255	نیازمندان در
-1.089255	نیروگاه نزدیک
-1.992345	نیز 30
-1.992345	نیز برخوردار
-1.992345	نیز به
-1.992345	نیز جهت
-1.992345	نیز حضور
-1.992345	نیز در
-1.992345	نیز دیده
-1.992345	نیز پنهان
-1.089255	نیستند .
-1.089255	نیمه59 تا
-1.089255	نیمه60 )
-1.089255	نیومکزیکو ,
-1.089255	نیکی کریمی
-1.089255	ها را
-1.089255	هاسال 43726
-1.089255	هاشمی نیز
-1.089255	هاکل دارایی
-1.934353	های اموزشی
-1.934353	های اول
-1.934353	های این
-1.934353	های بسیار
-1.934353	های زنجیره
-1.934353	های زندگی
-1.934353	های سرمایه
-1.089255	هجمه فرهنگی‌ای
-1.089255	هدایایی از
-1.390285	هدف سنتی
-1.390285	هدف ما
-1.089255	هدی (
-1.867406	هر حال
-1.867406	هر دو
-1.867406	هر نهضتی
-1.867406	هر کس
-1.867406	هر که
-1.867406	هر گروهی
-1.934353	هزار دلاری
-1.934353	هزار زوج
-1.934353	هزار سکه
-1.934353	هزار متر
-0.8262771	هزار کیلومتر
-1.089255	هزینه ماهانه
-1.390285	هستند به
-1.390285	هستند که
-1.089255	هستید و
-1.390285	هستیم .
-1.390285	هستیم رییس
-1.390285	هشت ماه
-1.390285	هشت هزار
-1.390285	هفت تیر
-1.390285	هفت گانه
-1.089255	هفتم تیر
-1.089255	هفته گذشته
-1.089255	هلاکت رسیدند
-1.691315	هم لابد
-1.691315	هم متاسفانه
-1.691315	هم مقابله
-1.691315	هم هستیم
-1.566377	هماهنگ ,
-1.566377	هماهنگ با
-1.566377	هماهنگ هستیم
-1.089255	هماهنگی مردم
-1.089255	همتی نژاد
-1.788225	همراه ایشان
-1.788225	همراه با
-1.788225	همراه به
-1.788225	همراه خانواده
-1.788225	همراه داشت
-1.089255	همراهان حضرت
-1.566377	همه ما
-1.566377	همه مرزهای
-1.566377	همه چیز
-1.691315	همچنین بحران
-1.691315	همچنین در
-1.691315	همچنین سیستم
-1.691315	همچنین کارهای
-1.089255	همچون طراحی
-1.089255	هم‌چنین درباره‌ی
-1.089255	هنر اصفهان
-1.089255	هنر-هنرهای تجسمی-
-1.089255	هنرمندان ارکستر
-1.390285	هنری انگلستان
-1.390285	هنری در
-1.089255	هیات بازرسی
-1.089255	هیچ اندیشه‌ای
-3.149953	و ....
-3.149953	و 10
-3.149953	و 300
-3.149953	و ابادانی
-3.149953	و احتمالا
-3.149953	و ارایه
-3.149953	و ارتباط
-3.149953	و ارز
-3.149953	و ارزیابی
-3.149953	و ارشاد
-3.149953	و ارگان‌های
-2.041877	و از
-3.149953	و اعتبار
-3.149953	و اعضای
-3.149953	و ایرانیان
-3.149953	و ایمه
-3.149953	و بازرگانی-
-3.149953	و بدهی‌های
-3.149953	و برنامه
-3.149953	و بعد
-2.041877	و به
-3.149953	و بهداشت
-3.149953	و تا
-3.149953	و تحقیقات
-3.149953	و تحویل
-3.149953	و تصاحب
-3.149953	و تهدیدات
-3.149953	و توسعه
-3.149953	و جایگاه
-3.149953	و جدید
-3.149953	و حتی
-3.149953	و حقوق-
-2.032636	و حمایت
-3.149953	و حمل
-3.149953	و داخلی
-3.149953	و دادگاه
-3.149953	و دارایی‌های
-3.149953	و دانش
-2.041877	و در
-3.149953	و درگیری
-3.149953	و دستگیری
-3.149953	و دشمنان
-3.149953	و دفن
-3.149953	و ذایقه‌ها
-3.149953	و روز
-3.149953	و روزنامه‌های
-3.149953	و زحمتکش
-3.149953	و زمینه
-3.149953	و زمینه‌های‌
-2.041877	و زیارت
-3.149953	و ساختمان‌های
-3.149953	و سازمان‌های
-3.149953	و سربلند
-3.149953	و سفر
-3.149953	و سینما
-3.149953	و شرایط
-3.149953	و شناسایی
-3.149953	و شهرداری
-3.149953	و طراحی
-3.149953	و طی
-3.149953	و ظرفیت‌ها
-3.149953	و عبرت‌های
-3.149953	و عزت
-3.149953	و فرانسه
-3.149953	و فروش
-3.149953	و فصل
-3.149953	و فناوری
-3.149953	و فنی
-3.149953	و فهم
-3.149953	و مادرها
-3.149953	و ماموریت‌های
-3.149953	و متعهد
-3.149953	و متوجه
-3.149953	و مجال
-3.149953	و محصول
-3.149953	و مرتب
-3.149953	و مشکلات
-3.149953	و معارفه
-3.149953	و منتقدسینما
-3.149953	و موثری
-3.149953	و میر
-3.149953	و نظامی
-3.149953	و نمی‌توان
-3.149953	و نوسازی
-3.149953	و نکته
-3.149953	و هماهنگی
-2.032636	و همراه
-3.149953	و همراهان
-3.149953	و همچنین
-3.149953	و هنر-هنرهای
-3.149953	و والدین
-3.149953	و وفادار
-3.149953	و پتانسیل‌های
-3.149953	و پرورش
-3.149953	و پستها
-3.149953	و چه‌
-3.149953	و کارگاه
-3.149953	و کامل‌تر
-3.149953	و کرامت
-3.149953	و کسب
-3.149953	و گاز
-3.149953	و گرایش
-3.149953	و گفت
-3.149953	و گفت‌وگو
-3.149953	و یا
-1.089255	واترپلو :
-1.089255	والدین این
-1.089255	واگذار شده
-1.089255	واگذاری امر
-1.089255	وجاده پیچ
-1.691315	وجود دارد
-1.691315	وجود دیدگاهی
-1.691315	وجود می‌اورد
-1.691315	وجود نداشته
-1.089255	وحی *
-1.089255	وداع با
-1.390285	ورزش باشید
-1.390285	ورزش غم‌های
-1.089255	ورزشی </s>
-1.089255	ورزید و
-1.691315	وزارت بهداشت
-0.5739979	وزارت علوم
-1.691315	وزارت فرهنگ
-1.089255	وزیر علوم
-1.089255	وسیله بیشتر
-1.089255	وضعیت بدهی‌ها
-1.089255	وفادار و
-1.089255	وقتی در
-1.691315	ولی در
-0.5739979	ولی فقیه
-1.691315	ولی وقتی
-1.089255	وماموریت‌های تازه‌ای
-1.089255	ومهجوریت سینمای
-1.089255	وپول الن
-1.089255	وگو اظهارنظرهایی
-1.089255	وگوی ذیل
-2.168437	وی ,
-2.168437	وی با
-2.168437	وی باید
-2.168437	وی تاکید
-2.168437	وی حکومت
-2.168437	وی خاطرنشان
-1.06036	وی در	-0.1186501
-2.168437	وی نوه
-1.051119	وی گفت	0.6112822
-1.390285	پاریس بود
-1.390285	پاریس شده
-1.089255	پاسخ به
-1.390285	پایان سال
-1.390285	پایان گفت‌وگو
-1.089255	پایانه کشور
-1.089255	پایانی اینکه
-1.390285	پایین تر
-1.390285	پایین ذخیره
-1.089255	پتانسیل‌های کم
-1.089255	پخش خواهد
-1.566377	پدر "
-1.566377	پدر اثر
-1.566377	پدر و
-1.089255	پراید370 میلیون
-1.390285	پرورش نخبگان
-1.390285	پرورش گفت
-1.390285	پروژه 10
-1.390285	پروژه خلیج
-1.089255	پزشکی تهران
-1.390285	پس از
-1.390285	پس تکلیف
-1.089255	پستها و
-1.089255	پنام تاش
-1.089255	پنهان نماند
-1.089255	پور که
-1.390285	پوشش دانشگاه
-1.390285	پوشش سازمان
-1.089255	پیروز نمی‌شود
-1.089255	پیروزی برساند
-1.089255	پیروی در
-0.2729678	پیشرفت فیزیکی
-1.089255	پیشگیری از
-1.390285	پیچ در
-1.390285	پیچ لواسان
-1.089255	پیک موتوری
-1.089255	چالش‌هایی را
-1.390285	چاپ شدند
-1.390285	چاپ شده
-1.566377	چرا این
-1.566377	چرا بر
-1.566377	چرا که
-1.089255	چقدر است
-1.089255	چند مرحله
-1.089255	چندانی را
-1.691315	چنین برشمرد
-1.691315	چنین خانواده‌هایی
-1.691315	چنین خودروهایی
-1.691315	چنین چالش‌هایی
-0.6709079	چه در
-1.788225	چه می
-1.788225	چه میزان
-1.788225	چه چی
-1.089255	چهارم تا
-1.390285	چه‌ در
-1.390285	چه‌ درتقسیم‌
-1.089255	چگونه حل
-1.089255	چی گوری
-1.089255	چیره شوند
-1.089255	چیز دگرگون
-1.089255	کادر مدیریتی
-1.089255	کار برگزاری
-1.089255	کاربردی ,
-1.089255	کارت عضویت
-1.089255	کارخانه‌های سیمان
-1.089255	کارهای دیوارکشی
-1.089255	کارهایی همچون
-1.089255	کاروان توصیه
-1.089255	کارکنان صدیق
-1.089255	کارگاه های
-1.089255	کاریکاتور در
-1.566377	کالا ,
-1.566377	کالا باید
-1.566377	کالا و
-1.089255	کالاهای اساسی
-1.089255	کالای خود
-0.2729678	کاملا هماهنگ
-1.089255	کامل‌تر است
-1.089255	کانون را
-1.089255	کتابخانه شخصی
-1.089255	کرامت ایران
-1.089255	کربلای معلی
-1.089255	کرج ,
-0.5991282	کرد .	1.726252
-1.022572	کرد :	-0.1076268
-2.130648	کرد به
-2.130648	کرد و
-2.130648	کرد که
-2.130648	کرد گریت
-1.089255	کردند و
-0.680149	کرده است
-1.788225	کرده اند
-1.788225	کرده ای
-1.089255	کرده‌اند و
-1.089255	کرده‌ایم که
-1.089255	کرمان به
-1.089255	کرمانی در
-1.089255	کروبی و
-1.390285	کریمی نویسنده
-1.390285	کریمی هم
-1.089255	کس مایل
-1.390285	کسب رضایت
-1.390285	کسب کرده
-1.089255	کشاورزی ایران
-0.8262771	کشور با
-1.934353	کشور برای
-1.934353	کشور در
-1.934353	کشور دریغ
-1.934353	کشور متبوع
-1.089255	کشوررومانی برگزار
-1.089255	کشورشان اغاز
-1.566377	کل بدهی
-1.566377	کل شبکه
-1.566377	کل قبلی
-1.390285	کم است
-1.390285	کم نظیر
-1.089255	کمیسیون ملی
-1.089255	کنترل و
-1.788225	کند ,
-0.680149	کند .	1.26573
-1.788225	کند بیشتر
-1.089255	کنم .
-1.566377	کنند ,
-1.566377	کنند .
-1.566377	کنند که
-1.089255	کنگره علوم
-1.089255	کنید و
-1.549381	که از
-2.657457	که امام
-2.657457	که امروز
-2.657457	که امکان
-2.657457	که امیدواریم
-1.549381	که این
-2.657457	که با
-2.657457	که باید
-2.657457	که بحران
-2.657457	که براساس
-1.54014	که به
-2.657457	که خدمت
-2.657457	که خواست
-0.8692317	که در	-0.04584731
-2.657457	که رسالت
-2.657457	که روز
-2.657457	که عرضه‌کننده
-2.657457	که عنوان
-2.657457	که فعالیت‌های
-2.657457	که مامور
-2.657457	که مایل
-2.657457	که محیط
-2.657457	که نشان
-2.657457	که نه
-2.657457	که چرا
-2.657457	که چه
-2.657457	که کارخانه‌های
-2.657457	که یک
-1.089255	کوب هستید
-1.390285	کوتاه "
-1.390285	کوتاه همه
-1.566377	کودکان بپردازند
-1.566377	کودکان و
-1.566377	کودکان چنین
-1.089255	کوشش می
-1.089255	کی مادا
-1.089255	کیا نیز
-1.089255	کیفیت مطالب
-1.566377	کیلومتر افزایش
-1.566377	کیلومتر در
-1.566377	کیلومتر رسیده
-1.089255	گاز فرانسه
-1.089255	گانه در
-1.089255	گذار یا
-1.089255	گذاری مد
-1.089255	گذاشته شد
-1.566377	گذشته به
-1.566377	گذشته طی
-1.566377	گذشته و
-1.089255	گر در
-1.089255	گرافیک ,
-0.2729678	گرایش به
-1.089255	گرایید .
-0.2729678	گردد .	1.68486
-1.089255	گردشگری می
-1.089255	گرفتن مشاوره
-1.089255	گرفته است
-1.390285	گروه تاریخ
-1.390285	گروه مشاغل
-1.089255	گروهی که
-1.089255	گروه‌ها و
-1.089255	گریت ارت
-1.788225	گزارش ,
-1.788225	گزارش ایسنا
-0.6709079	گزارش خبرنگار
-1.788225	گزارش روابط
-1.089255	گسترده ,
-1.089255	گسترش و
-0.07255067	گفت :	-0.3714956
-2.203199	گفت وگو
-2.203199	گفت وگوی
-1.089255	گفتنی است
-1.089255	گفته ناصری
-1.089255	گفته‌ی وی
-1.390285	گفت‌وگو با
-1.390285	گفت‌وگو بین
-1.089255	گوری "
-1.089255	گونه تلاشی
-1.089255	گیتس وپول
-1.089255	گیرند "
-1.089255	گیری و
-1.691315	یا بیمه
-1.691315	یا ذینفع
-1.691315	یا زنده
-1.691315	یا کادر
-1.089255	یابد افزایش
-1.089255	یاد شده
-1.089255	یادداشت‌هایی کوشش
-1.089255	یادمان فیلم
-1.089255	یارانه در
-1.089255	یافت .
-1.089255	یافته است
-1.089255	یحیی‌زاده ,
-1.089255	یعقوبی .
-1.390285	یونسکو باشند
-1.390285	یونسکو در
-1.788225	یک اقدام
-0.6709079	یک دانشگاه
-1.788225	یک زمان
-1.788225	یک قفسه
-1.089255	یکجا به
-1.089255	یکدیگر قویتر
-1.089255	‌12 بهمن
-1.089255	‌1357 همراه
-1.390285	‌دکتر رحمانی
-1.390285	‌دکتر صالحی

\3-grams:
-0.60624	<s> " وی
-0.4301487	امام ( ره
-0.11888	<s> . </s>
-0.03476211	است . </s>
-0.5106761	دارد . </s>
-0.05799195	شد . </s>
-0.05799195	شود . </s>
-0.5106761	کرد . </s>
-0.11888	کند . </s>
-0.4301487	گردد . </s>
-0.4301487	<s> 09 :
-0.4301487	<s> 11 :
-0.60624	کرد : "
-0.3424227	گفت : </s>
-0.6831514	گفت : در
-0.4301487	این انجمن در
-0.7311787	<s> با توجه	0.4173507
-0.4301487	تاکید بر اینکه
-0.8628586	<s> به گزارش	-0.0006856248
-0.4301487	با تاکید بر	-0.001778573
-0.4301487	اتوبان تهران -
-0.11888	با توجه به
-0.4301487	سازمان حج و	0.4173507
-0.4301487	با حوزه نمایندگی	-0.001778573
-0.60624	وی در ادامه
-0.8280887	که در سال
-0.8280887	خود را با
-0.2438187	خواهد شد .	0.426679
-0.60624	بیمه شده ,
-0.8117061	می شود .	0.20412
-0.4301487	سازمان صنایع ملی
-0.4301487	مقام معظم رهبری
-0.11888	برگزار می شود	-0.4036405
-0.4301487	حوزه نمایندگی ولی	-0.001778573
-0.11888	حج و زیارت
-0.4301487	نمایندگی ولی فقیه
-0.8280887	<s> وی در	-0.07985546
-0.4301487	درصد پیشرفت فیزیکی
-0.4301487	خاطرنشان کرد :
-0.60624	می کند .	0.4173507
-0.9742168	است که در
-0.7311787	به گزارش خبرنگار
-0.4301487	وی گفت :

\4-grams:
-0.1764468	خواهد شد . </s>
-0.09691001	می شود . </s>
-0.427155	می کند . </s>
-0.427155	با تاکید بر اینکه
-0.427155	<s> با توجه به
-0.427155	<s> وی در ادامه
-0.1764468	برگزار می شود .
-0.427155	با حوزه نمایندگی ولی
-0.427155	سازمان حج و زیارت
-0.427155	حوزه نمایندگی ولی فقیه
-0.728185	<s> به گزارش خبرنگار

\end\
